digraph Tree {
node [shape=box, fontname="helvetica"] ;
edge [fontname="helvetica"] ;
0 [label="entropy <= 57502.955\ngini = 0.498\nsamples = 1717\nvalue = [1262, 1452]"] ;
1 [label="entropy <= 56454.059\ngini = 0.484\nsamples = 711\nvalue = [681, 475]"] ;
0 -> 1 [labeldistance=2.5, labelangle=45, headlabel="True"] ;
2 [label="entropy <= 54992.234\ngini = 0.453\nsamples = 311\nvalue = [329, 174]"] ;
1 -> 2 ;
3 [label="fft <= 0.002\ngini = 0.483\nsamples = 32\nvalue = [20, 29]"] ;
2 -> 3 ;
4 [label="gini = 0.0\nsamples = 17\nvalue = [0, 26]"] ;
3 -> 4 ;
5 [label="mean <= -6.469\ngini = 0.227\nsamples = 15\nvalue = [20, 3]"] ;
3 -> 5 ;
6 [label="fft <= 0.004\ngini = 0.469\nsamples = 6\nvalue = [5, 3]"] ;
5 -> 6 ;
7 [label="fft <= 0.002\ngini = 0.375\nsamples = 3\nvalue = [1, 3]"] ;
6 -> 7 ;
8 [label="gini = 0.0\nsamples = 1\nvalue = [1, 0]"] ;
7 -> 8 ;
9 [label="gini = 0.0\nsamples = 2\nvalue = [0, 3]"] ;
7 -> 9 ;
10 [label="gini = 0.0\nsamples = 3\nvalue = [4, 0]"] ;
6 -> 10 ;
11 [label="gini = 0.0\nsamples = 9\nvalue = [15, 0]"] ;
5 -> 11 ;
12 [label="fft <= 0.004\ngini = 0.435\nsamples = 279\nvalue = [309, 145]"] ;
2 -> 12 ;
13 [label="entropy <= 56368.391\ngini = 0.49\nsamples = 199\nvalue = [177, 133]"] ;
12 -> 13 ;
14 [label="fft <= 0.003\ngini = 0.494\nsamples = 183\nvalue = [160, 128]"] ;
13 -> 14 ;
15 [label="entropy <= 56308.465\ngini = 0.469\nsamples = 166\nvalue = [160, 96]"] ;
14 -> 15 ;
16 [label="fft <= 0.002\ngini = 0.476\nsamples = 156\nvalue = [149, 95]"] ;
15 -> 16 ;
17 [label="mean <= -56.51\ngini = 0.492\nsamples = 81\nvalue = [56, 72]"] ;
16 -> 17 ;
18 [label="fft <= 0.001\ngini = 0.091\nsamples = 13\nvalue = [20, 1]"] ;
17 -> 18 ;
19 [label="gini = 0.0\nsamples = 12\nvalue = [20, 0]"] ;
18 -> 19 ;
20 [label="gini = 0.0\nsamples = 1\nvalue = [0, 1]"] ;
18 -> 20 ;
21 [label="mean <= 66.573\ngini = 0.447\nsamples = 68\nvalue = [36, 71]"] ;
17 -> 21 ;
22 [label="fft <= 0.001\ngini = 0.354\nsamples = 55\nvalue = [20, 67]"] ;
21 -> 22 ;
23 [label="entropy <= 55753.695\ngini = 0.5\nsamples = 21\nvalue = [16, 16]"] ;
22 -> 23 ;
24 [label="entropy <= 55411.746\ngini = 0.298\nsamples = 8\nvalue = [2, 9]"] ;
23 -> 24 ;
25 [label="gini = 0.0\nsamples = 3\nvalue = [0, 5]"] ;
24 -> 25 ;
26 [label="fft <= 0.0\ngini = 0.444\nsamples = 5\nvalue = [2, 4]"] ;
24 -> 26 ;
27 [label="gini = 0.0\nsamples = 2\nvalue = [0, 3]"] ;
26 -> 27 ;
28 [label="mean <= 8.393\ngini = 0.444\nsamples = 3\nvalue = [2, 1]"] ;
26 -> 28 ;
29 [label="gini = 0.0\nsamples = 1\nvalue = [0, 1]"] ;
28 -> 29 ;
30 [label="gini = 0.0\nsamples = 2\nvalue = [2, 0]"] ;
28 -> 30 ;
31 [label="mean <= -10.286\ngini = 0.444\nsamples = 13\nvalue = [14, 7]"] ;
23 -> 31 ;
32 [label="entropy <= 55930.449\ngini = 0.18\nsamples = 5\nvalue = [9, 1]"] ;
31 -> 32 ;
33 [label="gini = 0.0\nsamples = 1\nvalue = [0, 1]"] ;
32 -> 33 ;
34 [label="gini = 0.0\nsamples = 4\nvalue = [9, 0]"] ;
32 -> 34 ;
35 [label="fft <= 0.001\ngini = 0.496\nsamples = 8\nvalue = [5, 6]"] ;
31 -> 35 ;
36 [label="gini = 0.0\nsamples = 4\nvalue = [0, 5]"] ;
35 -> 36 ;
37 [label="entropy <= 56109.1\ngini = 0.278\nsamples = 4\nvalue = [5, 1]"] ;
35 -> 37 ;
38 [label="gini = 0.0\nsamples = 3\nvalue = [5, 0]"] ;
37 -> 38 ;
39 [label="gini = 0.0\nsamples = 1\nvalue = [0, 1]"] ;
37 -> 39 ;
40 [label="mean <= 3.141\ngini = 0.135\nsamples = 34\nvalue = [4, 51]"] ;
22 -> 40 ;
41 [label="mean <= -0.507\ngini = 0.252\nsamples = 18\nvalue = [4, 23]"] ;
40 -> 41 ;
42 [label="fft <= 0.001\ngini = 0.147\nsamples = 17\nvalue = [2, 23]"] ;
41 -> 42 ;
43 [label="mean <= -32.653\ngini = 0.32\nsamples = 5\nvalue = [1, 4]"] ;
42 -> 43 ;
44 [label="gini = 0.0\nsamples = 3\nvalue = [0, 3]"] ;
43 -> 44 ;
45 [label="mean <= -21.419\ngini = 0.5\nsamples = 2\nvalue = [1, 1]"] ;
43 -> 45 ;
46 [label="gini = 0.0\nsamples = 1\nvalue = [1, 0]"] ;
45 -> 46 ;
47 [label="gini = 0.0\nsamples = 1\nvalue = [0, 1]"] ;
45 -> 47 ;
48 [label="fft <= 0.002\ngini = 0.095\nsamples = 12\nvalue = [1, 19]"] ;
42 -> 48 ;
49 [label="gini = 0.0\nsamples = 7\nvalue = [0, 10]"] ;
48 -> 49 ;
50 [label="num_peaks <= 0.5\ngini = 0.18\nsamples = 5\nvalue = [1, 9]"] ;
48 -> 50 ;
51 [label="gini = 0.0\nsamples = 2\nvalue = [0, 4]"] ;
50 -> 51 ;
52 [label="mean <= -13.904\ngini = 0.278\nsamples = 3\nvalue = [1, 5]"] ;
50 -> 52 ;
53 [label="gini = 0.0\nsamples = 2\nvalue = [0, 5]"] ;
52 -> 53 ;
54 [label="gini = 0.0\nsamples = 1\nvalue = [1, 0]"] ;
52 -> 54 ;
55 [label="gini = 0.0\nsamples = 1\nvalue = [2, 0]"] ;
41 -> 55 ;
56 [label="gini = 0.0\nsamples = 16\nvalue = [0, 28]"] ;
40 -> 56 ;
57 [label="mean <= 114.011\ngini = 0.32\nsamples = 13\nvalue = [16, 4]"] ;
21 -> 57 ;
58 [label="fft <= 0.001\ngini = 0.49\nsamples = 5\nvalue = [4, 3]"] ;
57 -> 58 ;
59 [label="gini = 0.0\nsamples = 3\nvalue = [4, 0]"] ;
58 -> 59 ;
60 [label="gini = 0.0\nsamples = 2\nvalue = [0, 3]"] ;
58 -> 60 ;
61 [label="fft <= 0.002\ngini = 0.142\nsamples = 8\nvalue = [12, 1]"] ;
57 -> 61 ;
62 [label="gini = 0.0\nsamples = 7\nvalue = [12, 0]"] ;
61 -> 62 ;
63 [label="gini = 0.0\nsamples = 1\nvalue = [0, 1]"] ;
61 -> 63 ;
64 [label="entropy <= 56293.896\ngini = 0.318\nsamples = 75\nvalue = [93, 23]"] ;
16 -> 64 ;
65 [label="fft <= 0.003\ngini = 0.272\nsamples = 73\nvalue = [93, 18]"] ;
64 -> 65 ;
66 [label="entropy <= 55449.574\ngini = 0.196\nsamples = 58\nvalue = [81, 10]"] ;
65 -> 66 ;
67 [label="mean <= -0.066\ngini = 0.355\nsamples = 19\nvalue = [20, 6]"] ;
66 -> 67 ;
68 [label="entropy <= 55214.541\ngini = 0.124\nsamples = 10\nvalue = [14, 1]"] ;
67 -> 68 ;
69 [label="gini = 0.0\nsamples = 6\nvalue = [11, 0]"] ;
68 -> 69 ;
70 [label="mean <= -15.455\ngini = 0.375\nsamples = 4\nvalue = [3, 1]"] ;
68 -> 70 ;
71 [label="num_peaks <= 0.5\ngini = 0.5\nsamples = 2\nvalue = [1, 1]"] ;
70 -> 71 ;
72 [label="gini = 0.0\nsamples = 1\nvalue = [0, 1]"] ;
71 -> 72 ;
73 [label="gini = 0.0\nsamples = 1\nvalue = [1, 0]"] ;
71 -> 73 ;
74 [label="gini = 0.0\nsamples = 2\nvalue = [2, 0]"] ;
70 -> 74 ;
75 [label="mean <= 11.683\ngini = 0.496\nsamples = 9\nvalue = [6, 5]"] ;
67 -> 75 ;
76 [label="entropy <= 55405.631\ngini = 0.278\nsamples = 6\nvalue = [1, 5]"] ;
75 -> 76 ;
77 [label="gini = 0.0\nsamples = 4\nvalue = [0, 4]"] ;
76 -> 77 ;
78 [label="mean <= 1.858\ngini = 0.5\nsamples = 2\nvalue = [1, 1]"] ;
76 -> 78 ;
79 [label="gini = 0.0\nsamples = 1\nvalue = [1, 0]"] ;
78 -> 79 ;
80 [label="gini = 0.0\nsamples = 1\nvalue = [0, 1]"] ;
78 -> 80 ;
81 [label="gini = 0.0\nsamples = 3\nvalue = [5, 0]"] ;
75 -> 81 ;
82 [label="fft <= 0.002\ngini = 0.116\nsamples = 39\nvalue = [61, 4]"] ;
66 -> 82 ;
83 [label="mean <= 34.003\ngini = 0.26\nsamples = 14\nvalue = [22, 4]"] ;
82 -> 83 ;
84 [label="entropy <= 55888.197\ngini = 0.211\nsamples = 13\nvalue = [22, 3]"] ;
83 -> 84 ;
85 [label="gini = 0.0\nsamples = 6\nvalue = [11, 0]"] ;
84 -> 85 ;
86 [label="entropy <= 55907.65\ngini = 0.337\nsamples = 7\nvalue = [11, 3]"] ;
84 -> 86 ;
87 [label="gini = 0.0\nsamples = 1\nvalue = [0, 2]"] ;
86 -> 87 ;
88 [label="mean <= 16.466\ngini = 0.153\nsamples = 6\nvalue = [11, 1]"] ;
86 -> 88 ;
89 [label="gini = 0.0\nsamples = 4\nvalue = [9, 0]"] ;
88 -> 89 ;
90 [label="fft <= 0.002\ngini = 0.444\nsamples = 2\nvalue = [2, 1]"] ;
88 -> 90 ;
91 [label="gini = 0.0\nsamples = 1\nvalue = [0, 1]"] ;
90 -> 91 ;
92 [label="gini = 0.0\nsamples = 1\nvalue = [2, 0]"] ;
90 -> 92 ;
93 [label="gini = 0.0\nsamples = 1\nvalue = [0, 1]"] ;
83 -> 93 ;
94 [label="gini = 0.0\nsamples = 25\nvalue = [39, 0]"] ;
82 -> 94 ;
95 [label="entropy <= 55681.795\ngini = 0.48\nsamples = 15\nvalue = [12, 8]"] ;
65 -> 95 ;
96 [label="num_peaks <= 0.5\ngini = 0.198\nsamples = 7\nvalue = [8, 1]"] ;
95 -> 96 ;
97 [label="gini = 0.0\nsamples = 1\nvalue = [0, 1]"] ;
96 -> 97 ;
98 [label="gini = 0.0\nsamples = 6\nvalue = [8, 0]"] ;
96 -> 98 ;
99 [label="entropy <= 55851.633\ngini = 0.463\nsamples = 8\nvalue = [4, 7]"] ;
95 -> 99 ;
100 [label="gini = 0.0\nsamples = 2\nvalue = [0, 4]"] ;
99 -> 100 ;
101 [label="mean <= -16.84\ngini = 0.49\nsamples = 6\nvalue = [4, 3]"] ;
99 -> 101 ;
102 [label="gini = 0.0\nsamples = 3\nvalue = [4, 0]"] ;
101 -> 102 ;
103 [label="gini = 0.0\nsamples = 3\nvalue = [0, 3]"] ;
101 -> 103 ;
104 [label="gini = 0.0\nsamples = 2\nvalue = [0, 5]"] ;
64 -> 104 ;
105 [label="mean <= 210.126\ngini = 0.153\nsamples = 10\nvalue = [11, 1]"] ;
15 -> 105 ;
106 [label="gini = 0.0\nsamples = 9\nvalue = [11, 0]"] ;
105 -> 106 ;
107 [label="gini = 0.0\nsamples = 1\nvalue = [0, 1]"] ;
105 -> 107 ;
108 [label="gini = 0.0\nsamples = 17\nvalue = [0, 32]"] ;
14 -> 108 ;
109 [label="entropy <= 56402.104\ngini = 0.351\nsamples = 16\nvalue = [17, 5]"] ;
13 -> 109 ;
110 [label="mean <= -2.85\ngini = 0.142\nsamples = 7\nvalue = [12, 1]"] ;
109 -> 110 ;
111 [label="fft <= 0.002\ngini = 0.5\nsamples = 2\nvalue = [1, 1]"] ;
110 -> 111 ;
112 [label="gini = 0.0\nsamples = 1\nvalue = [0, 1]"] ;
111 -> 112 ;
113 [label="gini = 0.0\nsamples = 1\nvalue = [1, 0]"] ;
111 -> 113 ;
114 [label="gini = 0.0\nsamples = 5\nvalue = [11, 0]"] ;
110 -> 114 ;
115 [label="fft <= 0.003\ngini = 0.494\nsamples = 9\nvalue = [5, 4]"] ;
109 -> 115 ;
116 [label="mean <= 16.786\ngini = 0.278\nsamples = 6\nvalue = [5, 1]"] ;
115 -> 116 ;
117 [label="gini = 0.0\nsamples = 5\nvalue = [5, 0]"] ;
116 -> 117 ;
118 [label="gini = 0.0\nsamples = 1\nvalue = [0, 1]"] ;
116 -> 118 ;
119 [label="gini = 0.0\nsamples = 3\nvalue = [0, 3]"] ;
115 -> 119 ;
120 [label="mean <= 57.185\ngini = 0.153\nsamples = 80\nvalue = [132, 12]"] ;
12 -> 120 ;
121 [label="fft <= 0.03\ngini = 0.108\nsamples = 78\nvalue = [132, 8]"] ;
120 -> 121 ;
122 [label="num_peaks <= 0.5\ngini = 0.068\nsamples = 66\nvalue = [110, 4]"] ;
121 -> 122 ;
123 [label="mean <= 10.703\ngini = 0.198\nsamples = 22\nvalue = [32, 4]"] ;
122 -> 123 ;
124 [label="mean <= -6.661\ngini = 0.111\nsamples = 21\nvalue = [32, 2]"] ;
123 -> 124 ;
125 [label="mean <= -11.076\ngini = 0.375\nsamples = 5\nvalue = [6, 2]"] ;
124 -> 125 ;
126 [label="gini = 0.0\nsamples = 4\nvalue = [6, 0]"] ;
125 -> 126 ;
127 [label="gini = 0.0\nsamples = 1\nvalue = [0, 2]"] ;
125 -> 127 ;
128 [label="gini = 0.0\nsamples = 16\nvalue = [26, 0]"] ;
124 -> 128 ;
129 [label="gini = 0.0\nsamples = 1\nvalue = [0, 2]"] ;
123 -> 129 ;
130 [label="gini = 0.0\nsamples = 44\nvalue = [78, 0]"] ;
122 -> 130 ;
131 [label="fft <= 0.031\ngini = 0.26\nsamples = 12\nvalue = [22, 4]"] ;
121 -> 131 ;
132 [label="gini = 0.0\nsamples = 1\nvalue = [0, 4]"] ;
131 -> 132 ;
133 [label="gini = 0.0\nsamples = 11\nvalue = [22, 0]"] ;
131 -> 133 ;
134 [label="gini = 0.0\nsamples = 2\nvalue = [0, 4]"] ;
120 -> 134 ;
135 [label="fft <= 0.005\ngini = 0.497\nsamples = 400\nvalue = [352, 301]"] ;
1 -> 135 ;
136 [label="fft <= 0.003\ngini = 0.493\nsamples = 305\nvalue = [216, 274]"] ;
135 -> 136 ;
137 [label="fft <= 0.001\ngini = 0.497\nsamples = 213\nvalue = [190, 162]"] ;
136 -> 137 ;
138 [label="mean <= 12.745\ngini = 0.394\nsamples = 58\nvalue = [73, 27]"] ;
137 -> 138 ;
139 [label="entropy <= 56901.586\ngini = 0.466\nsamples = 39\nvalue = [41, 24]"] ;
138 -> 139 ;
140 [label="mean <= -13.002\ngini = 0.5\nsamples = 21\nvalue = [16, 17]"] ;
139 -> 140 ;
141 [label="mean <= -50.555\ngini = 0.208\nsamples = 12\nvalue = [15, 2]"] ;
140 -> 141 ;
142 [label="gini = 0.0\nsamples = 8\nvalue = [12, 0]"] ;
141 -> 142 ;
143 [label="num_peaks <= 0.5\ngini = 0.48\nsamples = 4\nvalue = [3, 2]"] ;
141 -> 143 ;
144 [label="gini = 0.0\nsamples = 1\nvalue = [1, 0]"] ;
143 -> 144 ;
145 [label="mean <= -28.255\ngini = 0.5\nsamples = 3\nvalue = [2, 2]"] ;
143 -> 145 ;
146 [label="gini = 0.0\nsamples = 2\nvalue = [0, 2]"] ;
145 -> 146 ;
147 [label="gini = 0.0\nsamples = 1\nvalue = [2, 0]"] ;
145 -> 147 ;
148 [label="mean <= -4.214\ngini = 0.117\nsamples = 9\nvalue = [1, 15]"] ;
140 -> 148 ;
149 [label="mean <= -6.114\ngini = 0.32\nsamples = 3\nvalue = [1, 4]"] ;
148 -> 149 ;
150 [label="gini = 0.0\nsamples = 2\nvalue = [0, 4]"] ;
149 -> 150 ;
151 [label="gini = 0.0\nsamples = 1\nvalue = [1, 0]"] ;
149 -> 151 ;
152 [label="gini = 0.0\nsamples = 6\nvalue = [0, 11]"] ;
148 -> 152 ;
153 [label="mean <= 7.511\ngini = 0.342\nsamples = 18\nvalue = [25, 7]"] ;
139 -> 153 ;
154 [label="fft <= 0.0\ngini = 0.238\nsamples = 17\nvalue = [25, 4]"] ;
153 -> 154 ;
155 [label="gini = 0.0\nsamples = 1\nvalue = [0, 1]"] ;
154 -> 155 ;
156 [label="entropy <= 57300.766\ngini = 0.191\nsamples = 16\nvalue = [25, 3]"] ;
154 -> 156 ;
157 [label="gini = 0.0\nsamples = 10\nvalue = [19, 0]"] ;
156 -> 157 ;
158 [label="entropy <= 57342.658\ngini = 0.444\nsamples = 6\nvalue = [6, 3]"] ;
156 -> 158 ;
159 [label="gini = 0.0\nsamples = 3\nvalue = [0, 3]"] ;
158 -> 159 ;
160 [label="gini = 0.0\nsamples = 3\nvalue = [6, 0]"] ;
158 -> 160 ;
161 [label="gini = 0.0\nsamples = 1\nvalue = [0, 3]"] ;
153 -> 161 ;
162 [label="fft <= 0.001\ngini = 0.157\nsamples = 19\nvalue = [32, 3]"] ;
138 -> 162 ;
163 [label="mean <= 42.149\ngini = 0.069\nsamples = 16\nvalue = [27, 1]"] ;
162 -> 163 ;
164 [label="entropy <= 57226.33\ngini = 0.18\nsamples = 5\nvalue = [9, 1]"] ;
163 -> 164 ;
165 [label="gini = 0.0\nsamples = 4\nvalue = [9, 0]"] ;
164 -> 165 ;
166 [label="gini = 0.0\nsamples = 1\nvalue = [0, 1]"] ;
164 -> 166 ;
167 [label="gini = 0.0\nsamples = 11\nvalue = [18, 0]"] ;
163 -> 167 ;
168 [label="mean <= 41.63\ngini = 0.408\nsamples = 3\nvalue = [5, 2]"] ;
162 -> 168 ;
169 [label="gini = 0.0\nsamples = 2\nvalue = [5, 0]"] ;
168 -> 169 ;
170 [label="gini = 0.0\nsamples = 1\nvalue = [0, 2]"] ;
168 -> 170 ;
171 [label="fft <= 0.002\ngini = 0.497\nsamples = 155\nvalue = [117, 135]"] ;
137 -> 171 ;
172 [label="fft <= 0.002\ngini = 0.444\nsamples = 99\nvalue = [56, 112]"] ;
171 -> 172 ;
173 [label="entropy <= 57480.357\ngini = 0.159\nsamples = 28\nvalue = [4, 42]"] ;
172 -> 173 ;
174 [label="mean <= -25.568\ngini = 0.124\nsamples = 27\nvalue = [3, 42]"] ;
173 -> 174 ;
175 [label="entropy <= 56823.209\ngini = 0.444\nsamples = 5\nvalue = [2, 4]"] ;
174 -> 175 ;
176 [label="gini = 0.0\nsamples = 1\nvalue = [2, 0]"] ;
175 -> 176 ;
177 [label="gini = 0.0\nsamples = 4\nvalue = [0, 4]"] ;
175 -> 177 ;
178 [label="entropy <= 57231.102\ngini = 0.05\nsamples = 22\nvalue = [1, 38]"] ;
174 -> 178 ;
179 [label="gini = 0.0\nsamples = 14\nvalue = [0, 26]"] ;
178 -> 179 ;
180 [label="mean <= 18.66\ngini = 0.142\nsamples = 8\nvalue = [1, 12]"] ;
178 -> 180 ;
181 [label="gini = 0.0\nsamples = 6\nvalue = [0, 10]"] ;
180 -> 181 ;
182 [label="fft <= 0.001\ngini = 0.444\nsamples = 2\nvalue = [1, 2]"] ;
180 -> 182 ;
183 [label="gini = 0.0\nsamples = 1\nvalue = [0, 2]"] ;
182 -> 183 ;
184 [label="gini = 0.0\nsamples = 1\nvalue = [1, 0]"] ;
182 -> 184 ;
185 [label="gini = 0.0\nsamples = 1\nvalue = [1, 0]"] ;
173 -> 185 ;
186 [label="entropy <= 57352.807\ngini = 0.489\nsamples = 71\nvalue = [52, 70]"] ;
172 -> 186 ;
187 [label="mean <= -3.871\ngini = 0.497\nsamples = 61\nvalue = [50, 59]"] ;
186 -> 187 ;
188 [label="entropy <= 57319.752\ngini = 0.346\nsamples = 23\nvalue = [8, 28]"] ;
187 -> 188 ;
189 [label="num_peaks <= 0.5\ngini = 0.32\nsamples = 22\nvalue = [7, 28]"] ;
188 -> 189 ;
190 [label="fft <= 0.002\ngini = 0.188\nsamples = 10\nvalue = [2, 17]"] ;
189 -> 190 ;
191 [label="gini = 0.0\nsamples = 1\nvalue = [1, 0]"] ;
190 -> 191 ;
192 [label="entropy <= 57227.559\ngini = 0.105\nsamples = 9\nvalue = [1, 17]"] ;
190 -> 192 ;
193 [label="gini = 0.0\nsamples = 7\nvalue = [0, 15]"] ;
192 -> 193 ;
194 [label="fft <= 0.002\ngini = 0.444\nsamples = 2\nvalue = [1, 2]"] ;
192 -> 194 ;
195 [label="gini = 0.0\nsamples = 1\nvalue = [0, 2]"] ;
194 -> 195 ;
196 [label="gini = 0.0\nsamples = 1\nvalue = [1, 0]"] ;
194 -> 196 ;
197 [label="mean <= -51.025\ngini = 0.43\nsamples = 12\nvalue = [5, 11]"] ;
189 -> 197 ;
198 [label="gini = 0.0\nsamples = 2\nvalue = [0, 3]"] ;
197 -> 198 ;
199 [label="fft <= 0.002\ngini = 0.473\nsamples = 10\nvalue = [5, 8]"] ;
197 -> 199 ;
200 [label="gini = 0.0\nsamples = 5\nvalue = [0, 7]"] ;
199 -> 200 ;
201 [label="mean <= -12.894\ngini = 0.278\nsamples = 5\nvalue = [5, 1]"] ;
199 -> 201 ;
202 [label="gini = 0.0\nsamples = 4\nvalue = [5, 0]"] ;
201 -> 202 ;
203 [label="gini = 0.0\nsamples = 1\nvalue = [0, 1]"] ;
201 -> 203 ;
204 [label="gini = 0.0\nsamples = 1\nvalue = [1, 0]"] ;
188 -> 204 ;
205 [label="mean <= 66.554\ngini = 0.489\nsamples = 38\nvalue = [42, 31]"] ;
187 -> 205 ;
206 [label="mean <= 36.698\ngini = 0.457\nsamples = 33\nvalue = [42, 23]"] ;
205 -> 206 ;
207 [label="mean <= 16.001\ngini = 0.5\nsamples = 26\nvalue = [22, 22]"] ;
206 -> 207 ;
208 [label="num_peaks <= 0.5\ngini = 0.308\nsamples = 12\nvalue = [17, 4]"] ;
207 -> 208 ;
209 [label="entropy <= 56891.896\ngini = 0.444\nsamples = 2\nvalue = [1, 2]"] ;
208 -> 209 ;
210 [label="gini = 0.0\nsamples = 1\nvalue = [1, 0]"] ;
209 -> 210 ;
211 [label="gini = 0.0\nsamples = 1\nvalue = [0, 2]"] ;
209 -> 211 ;
212 [label="entropy <= 57073.25\ngini = 0.198\nsamples = 10\nvalue = [16, 2]"] ;
208 -> 212 ;
213 [label="gini = 0.0\nsamples = 5\nvalue = [11, 0]"] ;
212 -> 213 ;
214 [label="fft <= 0.002\ngini = 0.408\nsamples = 5\nvalue = [5, 2]"] ;
212 -> 214 ;
215 [label="gini = 0.0\nsamples = 4\nvalue = [5, 0]"] ;
214 -> 215 ;
216 [label="gini = 0.0\nsamples = 1\nvalue = [0, 2]"] ;
214 -> 216 ;
217 [label="mean <= 29.545\ngini = 0.34\nsamples = 14\nvalue = [5, 18]"] ;
207 -> 217 ;
218 [label="entropy <= 56501.924\ngini = 0.459\nsamples = 11\nvalue = [5, 9]"] ;
217 -> 218 ;
219 [label="gini = 0.0\nsamples = 1\nvalue = [2, 0]"] ;
218 -> 219 ;
220 [label="entropy <= 57344.436\ngini = 0.375\nsamples = 10\nvalue = [3, 9]"] ;
218 -> 220 ;
221 [label="mean <= 29.064\ngini = 0.298\nsamples = 9\nvalue = [2, 9]"] ;
220 -> 221 ;
222 [label="entropy <= 56874.148\ngini = 0.18\nsamples = 8\nvalue = [1, 9]"] ;
221 -> 222 ;
223 [label="num_peaks <= 0.5\ngini = 0.32\nsamples = 4\nvalue = [1, 4]"] ;
222 -> 223 ;
224 [label="mean <= 18.963\ngini = 0.5\nsamples = 2\nvalue = [1, 1]"] ;
223 -> 224 ;
225 [label="gini = 0.0\nsamples = 1\nvalue = [1, 0]"] ;
224 -> 225 ;
226 [label="gini = 0.0\nsamples = 1\nvalue = [0, 1]"] ;
224 -> 226 ;
227 [label="gini = 0.0\nsamples = 2\nvalue = [0, 3]"] ;
223 -> 227 ;
228 [label="gini = 0.0\nsamples = 4\nvalue = [0, 5]"] ;
222 -> 228 ;
229 [label="gini = 0.0\nsamples = 1\nvalue = [1, 0]"] ;
221 -> 229 ;
230 [label="gini = 0.0\nsamples = 1\nvalue = [1, 0]"] ;
220 -> 230 ;
231 [label="gini = 0.0\nsamples = 3\nvalue = [0, 9]"] ;
217 -> 231 ;
232 [label="entropy <= 57075.795\ngini = 0.091\nsamples = 7\nvalue = [20, 1]"] ;
206 -> 232 ;
233 [label="gini = 0.0\nsamples = 4\nvalue = [15, 0]"] ;
232 -> 233 ;
234 [label="fft <= 0.002\ngini = 0.278\nsamples = 3\nvalue = [5, 1]"] ;
232 -> 234 ;
235 [label="mean <= 57.971\ngini = 0.444\nsamples = 2\nvalue = [2, 1]"] ;
234 -> 235 ;
236 [label="gini = 0.0\nsamples = 1\nvalue = [0, 1]"] ;
235 -> 236 ;
237 [label="gini = 0.0\nsamples = 1\nvalue = [2, 0]"] ;
235 -> 237 ;
238 [label="gini = 0.0\nsamples = 1\nvalue = [3, 0]"] ;
234 -> 238 ;
239 [label="gini = 0.0\nsamples = 5\nvalue = [0, 8]"] ;
205 -> 239 ;
240 [label="fft <= 0.002\ngini = 0.26\nsamples = 10\nvalue = [2, 11]"] ;
186 -> 240 ;
241 [label="mean <= -33.729\ngini = 0.153\nsamples = 9\nvalue = [1, 11]"] ;
240 -> 241 ;
242 [label="fft <= 0.002\ngini = 0.375\nsamples = 3\nvalue = [1, 3]"] ;
241 -> 242 ;
243 [label="gini = 0.0\nsamples = 1\nvalue = [1, 0]"] ;
242 -> 243 ;
244 [label="gini = 0.0\nsamples = 2\nvalue = [0, 3]"] ;
242 -> 244 ;
245 [label="gini = 0.0\nsamples = 6\nvalue = [0, 8]"] ;
241 -> 245 ;
246 [label="gini = 0.0\nsamples = 1\nvalue = [1, 0]"] ;
240 -> 246 ;
247 [label="fft <= 0.002\ngini = 0.398\nsamples = 56\nvalue = [61, 23]"] ;
171 -> 247 ;
248 [label="mean <= -75.263\ngini = 0.188\nsamples = 13\nvalue = [17, 2]"] ;
247 -> 248 ;
249 [label="gini = 0.0\nsamples = 1\nvalue = [0, 2]"] ;
248 -> 249 ;
250 [label="gini = 0.0\nsamples = 12\nvalue = [17, 0]"] ;
248 -> 250 ;
251 [label="mean <= 35.659\ngini = 0.437\nsamples = 43\nvalue = [44, 21]"] ;
247 -> 251 ;
252 [label="entropy <= 56530.891\ngini = 0.388\nsamples = 38\nvalue = [42, 15]"] ;
251 -> 252 ;
253 [label="mean <= 12.041\ngini = 0.408\nsamples = 5\nvalue = [2, 5]"] ;
252 -> 253 ;
254 [label="gini = 0.0\nsamples = 4\nvalue = [0, 5]"] ;
253 -> 254 ;
255 [label="gini = 0.0\nsamples = 1\nvalue = [2, 0]"] ;
253 -> 255 ;
256 [label="fft <= 0.003\ngini = 0.32\nsamples = 33\nvalue = [40, 10]"] ;
252 -> 256 ;
257 [label="entropy <= 57448.012\ngini = 0.291\nsamples = 24\nvalue = [28, 6]"] ;
256 -> 257 ;
258 [label="mean <= 0.895\ngini = 0.257\nsamples = 23\nvalue = [28, 5]"] ;
257 -> 258 ;
259 [label="num_peaks <= 0.5\ngini = 0.363\nsamples = 17\nvalue = [16, 5]"] ;
258 -> 259 ;
260 [label="mean <= 0.415\ngini = 0.42\nsamples = 9\nvalue = [7, 3]"] ;
259 -> 260 ;
261 [label="mean <= -7.67\ngini = 0.219\nsamples = 7\nvalue = [7, 1]"] ;
260 -> 261 ;
262 [label="entropy <= 56693.355\ngini = 0.444\nsamples = 3\nvalue = [2, 1]"] ;
261 -> 262 ;
263 [label="gini = 0.0\nsamples = 1\nvalue = [0, 1]"] ;
262 -> 263 ;
264 [label="gini = 0.0\nsamples = 2\nvalue = [2, 0]"] ;
262 -> 264 ;
265 [label="gini = 0.0\nsamples = 4\nvalue = [5, 0]"] ;
261 -> 265 ;
266 [label="gini = 0.0\nsamples = 2\nvalue = [0, 2]"] ;
260 -> 266 ;
267 [label="fft <= 0.003\ngini = 0.298\nsamples = 8\nvalue = [9, 2]"] ;
259 -> 267 ;
268 [label="mean <= -43.0\ngini = 0.48\nsamples = 4\nvalue = [3, 2]"] ;
267 -> 268 ;
269 [label="gini = 0.0\nsamples = 1\nvalue = [0, 1]"] ;
268 -> 269 ;
270 [label="fft <= 0.003\ngini = 0.375\nsamples = 3\nvalue = [3, 1]"] ;
268 -> 270 ;
271 [label="gini = 0.0\nsamples = 1\nvalue = [1, 0]"] ;
270 -> 271 ;
272 [label="mean <= -18.613\ngini = 0.444\nsamples = 2\nvalue = [2, 1]"] ;
270 -> 272 ;
273 [label="gini = 0.0\nsamples = 1\nvalue = [2, 0]"] ;
272 -> 273 ;
274 [label="gini = 0.0\nsamples = 1\nvalue = [0, 1]"] ;
272 -> 274 ;
275 [label="gini = 0.0\nsamples = 4\nvalue = [6, 0]"] ;
267 -> 275 ;
276 [label="gini = 0.0\nsamples = 6\nvalue = [12, 0]"] ;
258 -> 276 ;
277 [label="gini = 0.0\nsamples = 1\nvalue = [0, 1]"] ;
257 -> 277 ;
278 [label="mean <= 0.051\ngini = 0.375\nsamples = 9\nvalue = [12, 4]"] ;
256 -> 278 ;
279 [label="mean <= -1.931\ngini = 0.18\nsamples = 6\nvalue = [9, 1]"] ;
278 -> 279 ;
280 [label="gini = 0.0\nsamples = 4\nvalue = [5, 0]"] ;
279 -> 280 ;
281 [label="entropy <= 56961.689\ngini = 0.32\nsamples = 2\nvalue = [4, 1]"] ;
279 -> 281 ;
282 [label="gini = 0.0\nsamples = 1\nvalue = [0, 1]"] ;
281 -> 282 ;
283 [label="gini = 0.0\nsamples = 1\nvalue = [4, 0]"] ;
281 -> 283 ;
284 [label="mean <= 4.624\ngini = 0.5\nsamples = 3\nvalue = [3, 3]"] ;
278 -> 284 ;
285 [label="gini = 0.0\nsamples = 1\nvalue = [0, 3]"] ;
284 -> 285 ;
286 [label="gini = 0.0\nsamples = 2\nvalue = [3, 0]"] ;
284 -> 286 ;
287 [label="fft <= 0.003\ngini = 0.375\nsamples = 5\nvalue = [2, 6]"] ;
251 -> 287 ;
288 [label="gini = 0.0\nsamples = 4\nvalue = [0, 6]"] ;
287 -> 288 ;
289 [label="gini = 0.0\nsamples = 1\nvalue = [2, 0]"] ;
287 -> 289 ;
290 [label="mean <= -12.28\ngini = 0.306\nsamples = 92\nvalue = [26, 112]"] ;
136 -> 290 ;
291 [label="entropy <= 56792.463\ngini = 0.423\nsamples = 27\nvalue = [14, 32]"] ;
290 -> 291 ;
292 [label="gini = 0.0\nsamples = 7\nvalue = [0, 14]"] ;
291 -> 292 ;
293 [label="fft <= 0.005\ngini = 0.492\nsamples = 20\nvalue = [14, 18]"] ;
291 -> 293 ;
294 [label="entropy <= 56840.262\ngini = 0.471\nsamples = 19\nvalue = [11, 18]"] ;
293 -> 294 ;
295 [label="gini = 0.0\nsamples = 1\nvalue = [2, 0]"] ;
294 -> 295 ;
296 [label="mean <= -45.088\ngini = 0.444\nsamples = 18\nvalue = [9, 18]"] ;
294 -> 296 ;
297 [label="fft <= 0.003\ngini = 0.245\nsamples = 9\nvalue = [2, 12]"] ;
296 -> 297 ;
298 [label="gini = 0.0\nsamples = 1\nvalue = [1, 0]"] ;
297 -> 298 ;
299 [label="num_peaks <= 0.5\ngini = 0.142\nsamples = 8\nvalue = [1, 12]"] ;
297 -> 299 ;
300 [label="fft <= 0.004\ngini = 0.444\nsamples = 3\nvalue = [1, 2]"] ;
299 -> 300 ;
301 [label="gini = 0.0\nsamples = 2\nvalue = [0, 2]"] ;
300 -> 301 ;
302 [label="gini = 0.0\nsamples = 1\nvalue = [1, 0]"] ;
300 -> 302 ;
303 [label="gini = 0.0\nsamples = 5\nvalue = [0, 10]"] ;
299 -> 303 ;
304 [label="mean <= -36.033\ngini = 0.497\nsamples = 9\nvalue = [7, 6]"] ;
296 -> 304 ;
305 [label="gini = 0.0\nsamples = 2\nvalue = [3, 0]"] ;
304 -> 305 ;
306 [label="entropy <= 57072.5\ngini = 0.48\nsamples = 7\nvalue = [4, 6]"] ;
304 -> 306 ;
307 [label="gini = 0.0\nsamples = 2\nvalue = [0, 3]"] ;
306 -> 307 ;
308 [label="num_peaks <= 0.5\ngini = 0.49\nsamples = 5\nvalue = [4, 3]"] ;
306 -> 308 ;
309 [label="gini = 0.0\nsamples = 1\nvalue = [2, 0]"] ;
308 -> 309 ;
310 [label="mean <= -27.399\ngini = 0.48\nsamples = 4\nvalue = [2, 3]"] ;
308 -> 310 ;
311 [label="gini = 0.0\nsamples = 2\nvalue = [0, 3]"] ;
310 -> 311 ;
312 [label="gini = 0.0\nsamples = 2\nvalue = [2, 0]"] ;
310 -> 312 ;
313 [label="gini = 0.0\nsamples = 1\nvalue = [3, 0]"] ;
293 -> 313 ;
314 [label="fft <= 0.004\ngini = 0.227\nsamples = 65\nvalue = [12, 80]"] ;
290 -> 314 ;
315 [label="num_peaks <= 0.5\ngini = 0.263\nsamples = 55\nvalue = [12, 65]"] ;
314 -> 315 ;
316 [label="fft <= 0.004\ngini = 0.071\nsamples = 19\nvalue = [1, 26]"] ;
315 -> 316 ;
317 [label="gini = 0.0\nsamples = 16\nvalue = [0, 22]"] ;
316 -> 317 ;
318 [label="mean <= 36.358\ngini = 0.32\nsamples = 3\nvalue = [1, 4]"] ;
316 -> 318 ;
319 [label="mean <= 16.764\ngini = 0.5\nsamples = 2\nvalue = [1, 1]"] ;
318 -> 319 ;
320 [label="gini = 0.0\nsamples = 1\nvalue = [0, 1]"] ;
319 -> 320 ;
321 [label="gini = 0.0\nsamples = 1\nvalue = [1, 0]"] ;
319 -> 321 ;
322 [label="gini = 0.0\nsamples = 1\nvalue = [0, 3]"] ;
318 -> 322 ;
323 [label="mean <= 36.415\ngini = 0.343\nsamples = 36\nvalue = [11, 39]"] ;
315 -> 323 ;
324 [label="mean <= 18.937\ngini = 0.251\nsamples = 24\nvalue = [5, 29]"] ;
323 -> 324 ;
325 [label="entropy <= 56537.201\ngini = 0.32\nsamples = 18\nvalue = [5, 20]"] ;
324 -> 325 ;
326 [label="gini = 0.0\nsamples = 1\nvalue = [1, 0]"] ;
325 -> 326 ;
327 [label="entropy <= 56974.049\ngini = 0.278\nsamples = 17\nvalue = [4, 20]"] ;
325 -> 327 ;
328 [label="mean <= -1.17\ngini = 0.198\nsamples = 11\nvalue = [2, 16]"] ;
327 -> 328 ;
329 [label="gini = 0.0\nsamples = 4\nvalue = [0, 6]"] ;
328 -> 329 ;
330 [label="entropy <= 56614.299\ngini = 0.278\nsamples = 7\nvalue = [2, 10]"] ;
328 -> 330 ;
331 [label="gini = 0.0\nsamples = 1\nvalue = [0, 3]"] ;
330 -> 331 ;
332 [label="mean <= -0.32\ngini = 0.346\nsamples = 6\nvalue = [2, 7]"] ;
330 -> 332 ;
333 [label="gini = 0.0\nsamples = 1\nvalue = [1, 0]"] ;
332 -> 333 ;
334 [label="entropy <= 56655.674\ngini = 0.219\nsamples = 5\nvalue = [1, 7]"] ;
332 -> 334 ;
335 [label="gini = 0.0\nsamples = 1\nvalue = [1, 0]"] ;
334 -> 335 ;
336 [label="gini = 0.0\nsamples = 4\nvalue = [0, 7]"] ;
334 -> 336 ;
337 [label="fft <= 0.003\ngini = 0.444\nsamples = 6\nvalue = [2, 4]"] ;
327 -> 337 ;
338 [label="mean <= 4.871\ngini = 0.48\nsamples = 5\nvalue = [2, 3]"] ;
337 -> 338 ;
339 [label="gini = 0.0\nsamples = 2\nvalue = [0, 2]"] ;
338 -> 339 ;
340 [label="fft <= 0.003\ngini = 0.444\nsamples = 3\nvalue = [2, 1]"] ;
338 -> 340 ;
341 [label="gini = 0.0\nsamples = 1\nvalue = [1, 0]"] ;
340 -> 341 ;
342 [label="fft <= 0.003\ngini = 0.5\nsamples = 2\nvalue = [1, 1]"] ;
340 -> 342 ;
343 [label="gini = 0.0\nsamples = 1\nvalue = [0, 1]"] ;
342 -> 343 ;
344 [label="gini = 0.0\nsamples = 1\nvalue = [1, 0]"] ;
342 -> 344 ;
345 [label="gini = 0.0\nsamples = 1\nvalue = [0, 1]"] ;
337 -> 345 ;
346 [label="gini = 0.0\nsamples = 6\nvalue = [0, 9]"] ;
324 -> 346 ;
347 [label="fft <= 0.004\ngini = 0.469\nsamples = 12\nvalue = [6, 10]"] ;
323 -> 347 ;
348 [label="fft <= 0.003\ngini = 0.397\nsamples = 8\nvalue = [3, 8]"] ;
347 -> 348 ;
349 [label="mean <= 118.766\ngini = 0.48\nsamples = 3\nvalue = [2, 3]"] ;
348 -> 349 ;
350 [label="gini = 0.0\nsamples = 1\nvalue = [2, 0]"] ;
349 -> 350 ;
351 [label="gini = 0.0\nsamples = 2\nvalue = [0, 3]"] ;
349 -> 351 ;
352 [label="mean <= 54.125\ngini = 0.278\nsamples = 5\nvalue = [1, 5]"] ;
348 -> 352 ;
353 [label="gini = 0.0\nsamples = 1\nvalue = [1, 0]"] ;
352 -> 353 ;
354 [label="gini = 0.0\nsamples = 4\nvalue = [0, 5]"] ;
352 -> 354 ;
355 [label="entropy <= 56968.369\ngini = 0.48\nsamples = 4\nvalue = [3, 2]"] ;
347 -> 355 ;
356 [label="gini = 0.0\nsamples = 2\nvalue = [2, 0]"] ;
355 -> 356 ;
357 [label="entropy <= 57045.123\ngini = 0.444\nsamples = 2\nvalue = [1, 2]"] ;
355 -> 357 ;
358 [label="gini = 0.0\nsamples = 1\nvalue = [0, 2]"] ;
357 -> 358 ;
359 [label="gini = 0.0\nsamples = 1\nvalue = [1, 0]"] ;
357 -> 359 ;
360 [label="gini = 0.0\nsamples = 10\nvalue = [0, 15]"] ;
314 -> 360 ;
361 [label="fft <= 0.025\ngini = 0.276\nsamples = 95\nvalue = [136, 27]"] ;
135 -> 361 ;
362 [label="entropy <= 56737.133\ngini = 0.395\nsamples = 57\nvalue = [70, 26]"] ;
361 -> 362 ;
363 [label="fft <= 0.005\ngini = 0.5\nsamples = 12\nvalue = [13, 13]"] ;
362 -> 363 ;
364 [label="gini = 0.0\nsamples = 3\nvalue = [7, 0]"] ;
363 -> 364 ;
365 [label="entropy <= 56629.775\ngini = 0.432\nsamples = 9\nvalue = [6, 13]"] ;
363 -> 365 ;
366 [label="entropy <= 56551.994\ngini = 0.18\nsamples = 4\nvalue = [1, 9]"] ;
365 -> 366 ;
367 [label="gini = 0.0\nsamples = 1\nvalue = [1, 0]"] ;
366 -> 367 ;
368 [label="gini = 0.0\nsamples = 3\nvalue = [0, 9]"] ;
366 -> 368 ;
369 [label="entropy <= 56667.764\ngini = 0.494\nsamples = 5\nvalue = [5, 4]"] ;
365 -> 369 ;
370 [label="gini = 0.0\nsamples = 3\nvalue = [5, 0]"] ;
369 -> 370 ;
371 [label="gini = 0.0\nsamples = 2\nvalue = [0, 4]"] ;
369 -> 371 ;
372 [label="entropy <= 57422.643\ngini = 0.302\nsamples = 45\nvalue = [57, 13]"] ;
362 -> 372 ;
373 [label="fft <= 0.006\ngini = 0.228\nsamples = 38\nvalue = [53, 8]"] ;
372 -> 373 ;
374 [label="entropy <= 56969.133\ngini = 0.074\nsamples = 15\nvalue = [25, 1]"] ;
373 -> 374 ;
375 [label="entropy <= 56868.762\ngini = 0.219\nsamples = 5\nvalue = [7, 1]"] ;
374 -> 375 ;
376 [label="gini = 0.0\nsamples = 4\nvalue = [7, 0]"] ;
375 -> 376 ;
377 [label="gini = 0.0\nsamples = 1\nvalue = [0, 1]"] ;
375 -> 377 ;
378 [label="gini = 0.0\nsamples = 10\nvalue = [18, 0]"] ;
374 -> 378 ;
379 [label="fft <= 0.012\ngini = 0.32\nsamples = 23\nvalue = [28, 7]"] ;
373 -> 379 ;
380 [label="fft <= 0.01\ngini = 0.48\nsamples = 9\nvalue = [9, 6]"] ;
379 -> 380 ;
381 [label="entropy <= 57318.908\ngini = 0.375\nsamples = 7\nvalue = [9, 3]"] ;
380 -> 381 ;
382 [label="entropy <= 57055.473\ngini = 0.444\nsamples = 6\nvalue = [6, 3]"] ;
381 -> 382 ;
383 [label="entropy <= 56994.705\ngini = 0.245\nsamples = 4\nvalue = [6, 1]"] ;
382 -> 383 ;
384 [label="entropy <= 56883.201\ngini = 0.5\nsamples = 2\nvalue = [1, 1]"] ;
383 -> 384 ;
385 [label="gini = 0.0\nsamples = 1\nvalue = [1, 0]"] ;
384 -> 385 ;
386 [label="gini = 0.0\nsamples = 1\nvalue = [0, 1]"] ;
384 -> 386 ;
387 [label="gini = 0.0\nsamples = 2\nvalue = [5, 0]"] ;
383 -> 387 ;
388 [label="gini = 0.0\nsamples = 2\nvalue = [0, 2]"] ;
382 -> 388 ;
389 [label="gini = 0.0\nsamples = 1\nvalue = [3, 0]"] ;
381 -> 389 ;
390 [label="gini = 0.0\nsamples = 2\nvalue = [0, 3]"] ;
380 -> 390 ;
391 [label="entropy <= 56818.381\ngini = 0.095\nsamples = 14\nvalue = [19, 1]"] ;
379 -> 391 ;
392 [label="gini = 0.0\nsamples = 1\nvalue = [0, 1]"] ;
391 -> 392 ;
393 [label="gini = 0.0\nsamples = 13\nvalue = [19, 0]"] ;
391 -> 393 ;
394 [label="mean <= -0.898\ngini = 0.494\nsamples = 7\nvalue = [4, 5]"] ;
372 -> 394 ;
395 [label="gini = 0.0\nsamples = 2\nvalue = [0, 4]"] ;
394 -> 395 ;
396 [label="mean <= 4.376\ngini = 0.32\nsamples = 5\nvalue = [4, 1]"] ;
394 -> 396 ;
397 [label="gini = 0.0\nsamples = 4\nvalue = [4, 0]"] ;
396 -> 397 ;
398 [label="gini = 0.0\nsamples = 1\nvalue = [0, 1]"] ;
396 -> 398 ;
399 [label="mean <= 18.92\ngini = 0.029\nsamples = 38\nvalue = [66, 1]"] ;
361 -> 399 ;
400 [label="gini = 0.0\nsamples = 37\nvalue = [66, 0]"] ;
399 -> 400 ;
401 [label="gini = 0.0\nsamples = 1\nvalue = [0, 1]"] ;
399 -> 401 ;
402 [label="mean <= 7.236\ngini = 0.468\nsamples = 1006\nvalue = [581, 977]"] ;
0 -> 402 [labeldistance=2.5, labelangle=-45, headlabel="False"] ;
403 [label="fft <= 0.024\ngini = 0.491\nsamples = 715\nvalue = [469, 618]"] ;
402 -> 403 ;
404 [label="fft <= 0.001\ngini = 0.461\nsamples = 605\nvalue = [337, 600]"] ;
403 -> 404 ;
405 [label="fft <= 0.001\ngini = 0.483\nsamples = 127\nvalue = [121, 83]"] ;
404 -> 405 ;
406 [label="fft <= 0.0\ngini = 0.499\nsamples = 95\nvalue = [72, 77]"] ;
405 -> 406 ;
407 [label="fft <= 0.0\ngini = 0.211\nsamples = 15\nvalue = [3, 22]"] ;
406 -> 407 ;
408 [label="entropy <= 65801.197\ngini = 0.5\nsamples = 3\nvalue = [2, 2]"] ;
407 -> 408 ;
409 [label="gini = 0.0\nsamples = 2\nvalue = [0, 2]"] ;
408 -> 409 ;
410 [label="gini = 0.0\nsamples = 1\nvalue = [2, 0]"] ;
408 -> 410 ;
411 [label="entropy <= 58153.592\ngini = 0.091\nsamples = 12\nvalue = [1, 20]"] ;
407 -> 411 ;
412 [label="fft <= 0.0\ngini = 0.444\nsamples = 2\nvalue = [1, 2]"] ;
411 -> 412 ;
413 [label="gini = 0.0\nsamples = 1\nvalue = [1, 0]"] ;
412 -> 413 ;
414 [label="gini = 0.0\nsamples = 1\nvalue = [0, 2]"] ;
412 -> 414 ;
415 [label="gini = 0.0\nsamples = 10\nvalue = [0, 18]"] ;
411 -> 415 ;
416 [label="fft <= 0.001\ngini = 0.494\nsamples = 80\nvalue = [69, 55]"] ;
406 -> 416 ;
417 [label="entropy <= 59971.85\ngini = 0.403\nsamples = 48\nvalue = [54, 21]"] ;
416 -> 417 ;
418 [label="mean <= -108.872\ngini = 0.237\nsamples = 33\nvalue = [44, 7]"] ;
417 -> 418 ;
419 [label="fft <= 0.001\ngini = 0.444\nsamples = 3\nvalue = [1, 2]"] ;
418 -> 419 ;
420 [label="gini = 0.0\nsamples = 2\nvalue = [0, 2]"] ;
419 -> 420 ;
421 [label="gini = 0.0\nsamples = 1\nvalue = [1, 0]"] ;
419 -> 421 ;
422 [label="fft <= 0.001\ngini = 0.187\nsamples = 30\nvalue = [43, 5]"] ;
418 -> 422 ;
423 [label="entropy <= 57889.492\ngini = 0.069\nsamples = 16\nvalue = [27, 1]"] ;
422 -> 423 ;
424 [label="entropy <= 57841.719\ngini = 0.219\nsamples = 4\nvalue = [7, 1]"] ;
423 -> 424 ;
425 [label="gini = 0.0\nsamples = 3\nvalue = [7, 0]"] ;
424 -> 425 ;
426 [label="gini = 0.0\nsamples = 1\nvalue = [0, 1]"] ;
424 -> 426 ;
427 [label="gini = 0.0\nsamples = 12\nvalue = [20, 0]"] ;
423 -> 427 ;
428 [label="mean <= -0.286\ngini = 0.32\nsamples = 14\nvalue = [16, 4]"] ;
422 -> 428 ;
429 [label="num_peaks <= 0.5\ngini = 0.124\nsamples = 10\nvalue = [14, 1]"] ;
428 -> 429 ;
430 [label="gini = 0.0\nsamples = 5\nvalue = [9, 0]"] ;
429 -> 430 ;
431 [label="entropy <= 58855.834\ngini = 0.278\nsamples = 5\nvalue = [5, 1]"] ;
429 -> 431 ;
432 [label="mean <= -19.458\ngini = 0.5\nsamples = 2\nvalue = [1, 1]"] ;
431 -> 432 ;
433 [label="gini = 0.0\nsamples = 1\nvalue = [0, 1]"] ;
432 -> 433 ;
434 [label="gini = 0.0\nsamples = 1\nvalue = [1, 0]"] ;
432 -> 434 ;
435 [label="gini = 0.0\nsamples = 3\nvalue = [4, 0]"] ;
431 -> 435 ;
436 [label="entropy <= 57581.312\ngini = 0.48\nsamples = 4\nvalue = [2, 3]"] ;
428 -> 436 ;
437 [label="gini = 0.0\nsamples = 1\nvalue = [0, 2]"] ;
436 -> 437 ;
438 [label="mean <= 1.465\ngini = 0.444\nsamples = 3\nvalue = [2, 1]"] ;
436 -> 438 ;
439 [label="gini = 0.0\nsamples = 1\nvalue = [0, 1]"] ;
438 -> 439 ;
440 [label="gini = 0.0\nsamples = 2\nvalue = [2, 0]"] ;
438 -> 440 ;
441 [label="entropy <= 60723.885\ngini = 0.486\nsamples = 15\nvalue = [10, 14]"] ;
417 -> 441 ;
442 [label="entropy <= 60270.875\ngini = 0.278\nsamples = 6\nvalue = [2, 10]"] ;
441 -> 442 ;
443 [label="gini = 0.0\nsamples = 2\nvalue = [0, 4]"] ;
442 -> 443 ;
444 [label="fft <= 0.001\ngini = 0.375\nsamples = 4\nvalue = [2, 6]"] ;
442 -> 444 ;
445 [label="gini = 0.0\nsamples = 2\nvalue = [2, 0]"] ;
444 -> 445 ;
446 [label="gini = 0.0\nsamples = 2\nvalue = [0, 6]"] ;
444 -> 446 ;
447 [label="entropy <= 62197.252\ngini = 0.444\nsamples = 9\nvalue = [8, 4]"] ;
441 -> 447 ;
448 [label="gini = 0.0\nsamples = 3\nvalue = [5, 0]"] ;
447 -> 448 ;
449 [label="entropy <= 62602.457\ngini = 0.49\nsamples = 6\nvalue = [3, 4]"] ;
447 -> 449 ;
450 [label="gini = 0.0\nsamples = 2\nvalue = [0, 3]"] ;
449 -> 450 ;
451 [label="mean <= -35.537\ngini = 0.375\nsamples = 4\nvalue = [3, 1]"] ;
449 -> 451 ;
452 [label="gini = 0.0\nsamples = 3\nvalue = [3, 0]"] ;
451 -> 452 ;
453 [label="gini = 0.0\nsamples = 1\nvalue = [0, 1]"] ;
451 -> 453 ;
454 [label="entropy <= 65462.801\ngini = 0.425\nsamples = 32\nvalue = [15, 34]"] ;
416 -> 454 ;
455 [label="entropy <= 61412.684\ngini = 0.4\nsamples = 31\nvalue = [13, 34]"] ;
454 -> 455 ;
456 [label="mean <= -13.684\ngini = 0.473\nsamples = 18\nvalue = [10, 16]"] ;
455 -> 456 ;
457 [label="num_peaks <= 0.5\ngini = 0.219\nsamples = 12\nvalue = [2, 14]"] ;
456 -> 457 ;
458 [label="gini = 0.0\nsamples = 4\nvalue = [0, 7]"] ;
457 -> 458 ;
459 [label="fft <= 0.001\ngini = 0.346\nsamples = 8\nvalue = [2, 7]"] ;
457 -> 459 ;
460 [label="entropy <= 58100.895\ngini = 0.5\nsamples = 4\nvalue = [2, 2]"] ;
459 -> 460 ;
461 [label="gini = 0.0\nsamples = 1\nvalue = [0, 1]"] ;
460 -> 461 ;
462 [label="fft <= 0.001\ngini = 0.444\nsamples = 3\nvalue = [2, 1]"] ;
460 -> 462 ;
463 [label="gini = 0.0\nsamples = 1\nvalue = [0, 1]"] ;
462 -> 463 ;
464 [label="gini = 0.0\nsamples = 2\nvalue = [2, 0]"] ;
462 -> 464 ;
465 [label="gini = 0.0\nsamples = 4\nvalue = [0, 5]"] ;
459 -> 465 ;
466 [label="entropy <= 57972.549\ngini = 0.32\nsamples = 6\nvalue = [8, 2]"] ;
456 -> 466 ;
467 [label="gini = 0.0\nsamples = 1\nvalue = [0, 1]"] ;
466 -> 467 ;
468 [label="num_peaks <= 0.5\ngini = 0.198\nsamples = 5\nvalue = [8, 1]"] ;
466 -> 468 ;
469 [label="entropy <= 59861.988\ngini = 0.5\nsamples = 2\nvalue = [1, 1]"] ;
468 -> 469 ;
470 [label="gini = 0.0\nsamples = 1\nvalue = [1, 0]"] ;
469 -> 470 ;
471 [label="gini = 0.0\nsamples = 1\nvalue = [0, 1]"] ;
469 -> 471 ;
472 [label="gini = 0.0\nsamples = 3\nvalue = [7, 0]"] ;
468 -> 472 ;
473 [label="fft <= 0.001\ngini = 0.245\nsamples = 13\nvalue = [3, 18]"] ;
455 -> 473 ;
474 [label="gini = 0.0\nsamples = 8\nvalue = [0, 13]"] ;
473 -> 474 ;
475 [label="mean <= -1.17\ngini = 0.469\nsamples = 5\nvalue = [3, 5]"] ;
473 -> 475 ;
476 [label="mean <= -44.616\ngini = 0.278\nsamples = 4\nvalue = [1, 5]"] ;
475 -> 476 ;
477 [label="gini = 0.0\nsamples = 1\nvalue = [1, 0]"] ;
476 -> 477 ;
478 [label="gini = 0.0\nsamples = 3\nvalue = [0, 5]"] ;
476 -> 478 ;
479 [label="gini = 0.0\nsamples = 1\nvalue = [2, 0]"] ;
475 -> 479 ;
480 [label="gini = 0.0\nsamples = 1\nvalue = [2, 0]"] ;
454 -> 480 ;
481 [label="num_peaks <= 0.5\ngini = 0.194\nsamples = 32\nvalue = [49, 6]"] ;
405 -> 481 ;
482 [label="entropy <= 63813.92\ngini = 0.391\nsamples = 11\nvalue = [11, 4]"] ;
481 -> 482 ;
483 [label="entropy <= 60883.072\ngini = 0.494\nsamples = 7\nvalue = [5, 4]"] ;
482 -> 483 ;
484 [label="gini = 0.0\nsamples = 3\nvalue = [4, 0]"] ;
483 -> 484 ;
485 [label="entropy <= 62039.836\ngini = 0.32\nsamples = 4\nvalue = [1, 4]"] ;
483 -> 485 ;
486 [label="gini = 0.0\nsamples = 2\nvalue = [0, 2]"] ;
485 -> 486 ;
487 [label="entropy <= 63276.955\ngini = 0.444\nsamples = 2\nvalue = [1, 2]"] ;
485 -> 487 ;
488 [label="gini = 0.0\nsamples = 1\nvalue = [1, 0]"] ;
487 -> 488 ;
489 [label="gini = 0.0\nsamples = 1\nvalue = [0, 2]"] ;
487 -> 489 ;
490 [label="gini = 0.0\nsamples = 4\nvalue = [6, 0]"] ;
482 -> 490 ;
491 [label="entropy <= 58905.643\ngini = 0.095\nsamples = 21\nvalue = [38, 2]"] ;
481 -> 491 ;
492 [label="mean <= -44.225\ngini = 0.375\nsamples = 3\nvalue = [3, 1]"] ;
491 -> 492 ;
493 [label="gini = 0.0\nsamples = 2\nvalue = [3, 0]"] ;
492 -> 493 ;
494 [label="gini = 0.0\nsamples = 1\nvalue = [0, 1]"] ;
492 -> 494 ;
495 [label="entropy <= 61474.109\ngini = 0.054\nsamples = 18\nvalue = [35, 1]"] ;
491 -> 495 ;
496 [label="mean <= -56.994\ngini = 0.124\nsamples = 5\nvalue = [14, 1]"] ;
495 -> 496 ;
497 [label="entropy <= 60620.422\ngini = 0.375\nsamples = 3\nvalue = [3, 1]"] ;
496 -> 497 ;
498 [label="gini = 0.0\nsamples = 2\nvalue = [3, 0]"] ;
497 -> 498 ;
499 [label="gini = 0.0\nsamples = 1\nvalue = [0, 1]"] ;
497 -> 499 ;
500 [label="gini = 0.0\nsamples = 2\nvalue = [11, 0]"] ;
496 -> 500 ;
501 [label="gini = 0.0\nsamples = 13\nvalue = [21, 0]"] ;
495 -> 501 ;
502 [label="fft <= 0.005\ngini = 0.416\nsamples = 478\nvalue = [216, 517]"] ;
404 -> 502 ;
503 [label="entropy <= 58396.354\ngini = 0.298\nsamples = 297\nvalue = [82, 369]"] ;
502 -> 503 ;
504 [label="entropy <= 57617.15\ngini = 0.154\nsamples = 99\nvalue = [13, 142]"] ;
503 -> 504 ;
505 [label="fft <= 0.002\ngini = 0.34\nsamples = 13\nvalue = [5, 18]"] ;
504 -> 505 ;
506 [label="gini = 0.0\nsamples = 1\nvalue = [1, 0]"] ;
505 -> 506 ;
507 [label="entropy <= 57565.053\ngini = 0.298\nsamples = 12\nvalue = [4, 18]"] ;
505 -> 507 ;
508 [label="gini = 0.0\nsamples = 6\nvalue = [0, 12]"] ;
507 -> 508 ;
509 [label="entropy <= 57569.01\ngini = 0.48\nsamples = 6\nvalue = [4, 6]"] ;
507 -> 509 ;
510 [label="gini = 0.0\nsamples = 1\nvalue = [3, 0]"] ;
509 -> 510 ;
511 [label="entropy <= 57572.016\ngini = 0.245\nsamples = 5\nvalue = [1, 6]"] ;
509 -> 511 ;
512 [label="gini = 0.0\nsamples = 2\nvalue = [0, 4]"] ;
511 -> 512 ;
513 [label="entropy <= 57575.992\ngini = 0.444\nsamples = 3\nvalue = [1, 2]"] ;
511 -> 513 ;
514 [label="gini = 0.0\nsamples = 1\nvalue = [1, 0]"] ;
513 -> 514 ;
515 [label="gini = 0.0\nsamples = 2\nvalue = [0, 2]"] ;
513 -> 515 ;
516 [label="fft <= 0.002\ngini = 0.114\nsamples = 86\nvalue = [8, 124]"] ;
504 -> 516 ;
517 [label="mean <= -0.166\ngini = 0.056\nsamples = 42\nvalue = [2, 68]"] ;
516 -> 517 ;
518 [label="gini = 0.0\nsamples = 36\nvalue = [0, 63]"] ;
517 -> 518 ;
519 [label="fft <= 0.002\ngini = 0.408\nsamples = 6\nvalue = [2, 5]"] ;
517 -> 519 ;
520 [label="gini = 0.0\nsamples = 3\nvalue = [0, 4]"] ;
519 -> 520 ;
521 [label="mean <= 0.848\ngini = 0.444\nsamples = 3\nvalue = [2, 1]"] ;
519 -> 521 ;
522 [label="gini = 0.0\nsamples = 1\nvalue = [1, 0]"] ;
521 -> 522 ;
523 [label="mean <= 2.25\ngini = 0.5\nsamples = 2\nvalue = [1, 1]"] ;
521 -> 523 ;
524 [label="gini = 0.0\nsamples = 1\nvalue = [0, 1]"] ;
523 -> 524 ;
525 [label="gini = 0.0\nsamples = 1\nvalue = [1, 0]"] ;
523 -> 525 ;
526 [label="fft <= 0.003\ngini = 0.175\nsamples = 44\nvalue = [6, 56]"] ;
516 -> 526 ;
527 [label="entropy <= 57813.551\ngini = 0.48\nsamples = 4\nvalue = [3, 2]"] ;
526 -> 527 ;
528 [label="gini = 0.0\nsamples = 2\nvalue = [0, 2]"] ;
527 -> 528 ;
529 [label="gini = 0.0\nsamples = 2\nvalue = [3, 0]"] ;
527 -> 529 ;
530 [label="mean <= 2.888\ngini = 0.1\nsamples = 40\nvalue = [3, 54]"] ;
526 -> 530 ;
531 [label="num_peaks <= 0.5\ngini = 0.069\nsamples = 39\nvalue = [2, 54]"] ;
530 -> 531 ;
532 [label="entropy <= 57772.768\ngini = 0.165\nsamples = 17\nvalue = [2, 20]"] ;
531 -> 532 ;
533 [label="fft <= 0.004\ngini = 0.444\nsamples = 6\nvalue = [2, 4]"] ;
532 -> 533 ;
534 [label="entropy <= 57652.607\ngini = 0.444\nsamples = 3\nvalue = [2, 1]"] ;
533 -> 534 ;
535 [label="gini = 0.0\nsamples = 1\nvalue = [0, 1]"] ;
534 -> 535 ;
536 [label="gini = 0.0\nsamples = 2\nvalue = [2, 0]"] ;
534 -> 536 ;
537 [label="gini = 0.0\nsamples = 3\nvalue = [0, 3]"] ;
533 -> 537 ;
538 [label="gini = 0.0\nsamples = 11\nvalue = [0, 16]"] ;
532 -> 538 ;
539 [label="gini = 0.0\nsamples = 22\nvalue = [0, 34]"] ;
531 -> 539 ;
540 [label="gini = 0.0\nsamples = 1\nvalue = [1, 0]"] ;
530 -> 540 ;
541 [label="entropy <= 58441.912\ngini = 0.358\nsamples = 198\nvalue = [69, 227]"] ;
503 -> 541 ;
542 [label="num_peaks <= 0.5\ngini = 0.245\nsamples = 5\nvalue = [6, 1]"] ;
541 -> 542 ;
543 [label="gini = 0.0\nsamples = 4\nvalue = [6, 0]"] ;
542 -> 543 ;
544 [label="gini = 0.0\nsamples = 1\nvalue = [0, 1]"] ;
542 -> 544 ;
545 [label="entropy <= 68296.691\ngini = 0.341\nsamples = 193\nvalue = [63, 226]"] ;
541 -> 545 ;
546 [label="mean <= 6.769\ngini = 0.332\nsamples = 192\nvalue = [60, 226]"] ;
545 -> 546 ;
547 [label="mean <= -47.236\ngini = 0.319\nsamples = 189\nvalue = [56, 225]"] ;
546 -> 547 ;
548 [label="entropy <= 61352.553\ngini = 0.459\nsamples = 19\nvalue = [10, 18]"] ;
547 -> 548 ;
549 [label="mean <= -76.717\ngini = 0.298\nsamples = 15\nvalue = [4, 18]"] ;
548 -> 549 ;
550 [label="num_peaks <= 0.5\ngini = 0.5\nsamples = 4\nvalue = [3, 3]"] ;
549 -> 550 ;
551 [label="gini = 0.0\nsamples = 2\nvalue = [3, 0]"] ;
550 -> 551 ;
552 [label="gini = 0.0\nsamples = 2\nvalue = [0, 3]"] ;
550 -> 552 ;
553 [label="entropy <= 59538.334\ngini = 0.117\nsamples = 11\nvalue = [1, 15]"] ;
549 -> 553 ;
554 [label="fft <= 0.004\ngini = 0.219\nsamples = 4\nvalue = [1, 7]"] ;
553 -> 554 ;
555 [label="gini = 0.0\nsamples = 1\nvalue = [1, 0]"] ;
554 -> 555 ;
556 [label="gini = 0.0\nsamples = 3\nvalue = [0, 7]"] ;
554 -> 556 ;
557 [label="gini = 0.0\nsamples = 7\nvalue = [0, 8]"] ;
553 -> 557 ;
558 [label="gini = 0.0\nsamples = 4\nvalue = [6, 0]"] ;
548 -> 558 ;
559 [label="entropy <= 58681.854\ngini = 0.298\nsamples = 170\nvalue = [46, 207]"] ;
547 -> 559 ;
560 [label="mean <= -14.626\ngini = 0.453\nsamples = 16\nvalue = [9, 17]"] ;
559 -> 560 ;
561 [label="gini = 0.0\nsamples = 4\nvalue = [0, 8]"] ;
560 -> 561 ;
562 [label="entropy <= 58674.135\ngini = 0.5\nsamples = 12\nvalue = [9, 9]"] ;
560 -> 562 ;
563 [label="num_peaks <= 0.5\ngini = 0.48\nsamples = 11\nvalue = [6, 9]"] ;
562 -> 563 ;
564 [label="gini = 0.0\nsamples = 3\nvalue = [0, 5]"] ;
563 -> 564 ;
565 [label="fft <= 0.003\ngini = 0.48\nsamples = 8\nvalue = [6, 4]"] ;
563 -> 565 ;
566 [label="gini = 0.0\nsamples = 2\nvalue = [2, 0]"] ;
565 -> 566 ;
567 [label="mean <= 4.808\ngini = 0.5\nsamples = 6\nvalue = [4, 4]"] ;
565 -> 567 ;
568 [label="mean <= 2.072\ngini = 0.444\nsamples = 5\nvalue = [4, 2]"] ;
567 -> 568 ;
569 [label="entropy <= 58478.688\ngini = 0.444\nsamples = 3\nvalue = [1, 2]"] ;
568 -> 569 ;
570 [label="gini = 0.0\nsamples = 1\nvalue = [1, 0]"] ;
569 -> 570 ;
571 [label="gini = 0.0\nsamples = 2\nvalue = [0, 2]"] ;
569 -> 571 ;
572 [label="gini = 0.0\nsamples = 2\nvalue = [3, 0]"] ;
568 -> 572 ;
573 [label="gini = 0.0\nsamples = 1\nvalue = [0, 2]"] ;
567 -> 573 ;
574 [label="gini = 0.0\nsamples = 1\nvalue = [3, 0]"] ;
562 -> 574 ;
575 [label="entropy <= 61129.662\ngini = 0.273\nsamples = 154\nvalue = [37, 190]"] ;
559 -> 575 ;
576 [label="mean <= -20.261\ngini = 0.22\nsamples = 86\nvalue = [17, 118]"] ;
575 -> 576 ;
577 [label="gini = 0.0\nsamples = 26\nvalue = [0, 41]"] ;
576 -> 577 ;
578 [label="mean <= 1.27\ngini = 0.296\nsamples = 60\nvalue = [17, 77]"] ;
576 -> 578 ;
579 [label="fft <= 0.004\ngini = 0.367\nsamples = 43\nvalue = [16, 50]"] ;
578 -> 579 ;
580 [label="fft <= 0.002\ngini = 0.32\nsamples = 38\nvalue = [12, 48]"] ;
579 -> 580 ;
581 [label="gini = 0.0\nsamples = 1\nvalue = [2, 0]"] ;
580 -> 581 ;
582 [label="fft <= 0.002\ngini = 0.285\nsamples = 37\nvalue = [10, 48]"] ;
580 -> 582 ;
583 [label="mean <= -12.24\ngini = 0.463\nsamples = 10\nvalue = [4, 7]"] ;
582 -> 583 ;
584 [label="num_peaks <= 0.5\ngini = 0.375\nsamples = 3\nvalue = [3, 1]"] ;
583 -> 584 ;
585 [label="gini = 0.0\nsamples = 1\nvalue = [0, 1]"] ;
584 -> 585 ;
586 [label="gini = 0.0\nsamples = 2\nvalue = [3, 0]"] ;
584 -> 586 ;
587 [label="entropy <= 58926.584\ngini = 0.245\nsamples = 7\nvalue = [1, 6]"] ;
583 -> 587 ;
588 [label="entropy <= 58768.438\ngini = 0.5\nsamples = 2\nvalue = [1, 1]"] ;
587 -> 588 ;
589 [label="gini = 0.0\nsamples = 1\nvalue = [0, 1]"] ;
588 -> 589 ;
590 [label="gini = 0.0\nsamples = 1\nvalue = [1, 0]"] ;
588 -> 590 ;
591 [label="gini = 0.0\nsamples = 5\nvalue = [0, 5]"] ;
587 -> 591 ;
592 [label="mean <= -0.494\ngini = 0.223\nsamples = 27\nvalue = [6, 41]"] ;
582 -> 592 ;
593 [label="mean <= -18.492\ngini = 0.162\nsamples = 26\nvalue = [4, 41]"] ;
592 -> 593 ;
594 [label="num_peaks <= 0.5\ngini = 0.444\nsamples = 4\nvalue = [2, 4]"] ;
593 -> 594 ;
595 [label="entropy <= 60804.967\ngini = 0.444\nsamples = 3\nvalue = [2, 1]"] ;
594 -> 595 ;
596 [label="gini = 0.0\nsamples = 2\nvalue = [2, 0]"] ;
595 -> 596 ;
597 [label="gini = 0.0\nsamples = 1\nvalue = [0, 1]"] ;
595 -> 597 ;
598 [label="gini = 0.0\nsamples = 1\nvalue = [0, 3]"] ;
594 -> 598 ;
599 [label="fft <= 0.003\ngini = 0.097\nsamples = 22\nvalue = [2, 37]"] ;
593 -> 599 ;
600 [label="fft <= 0.003\ngini = 0.159\nsamples = 13\nvalue = [2, 21]"] ;
599 -> 600 ;
601 [label="mean <= -6.231\ngini = 0.095\nsamples = 11\nvalue = [1, 19]"] ;
600 -> 601 ;
602 [label="fft <= 0.002\ngini = 0.18\nsamples = 5\nvalue = [1, 9]"] ;
601 -> 602 ;
603 [label="fft <= 0.002\ngini = 0.375\nsamples = 2\nvalue = [1, 3]"] ;
602 -> 603 ;
604 [label="gini = 0.0\nsamples = 1\nvalue = [0, 3]"] ;
603 -> 604 ;
605 [label="gini = 0.0\nsamples = 1\nvalue = [1, 0]"] ;
603 -> 605 ;
606 [label="gini = 0.0\nsamples = 3\nvalue = [0, 6]"] ;
602 -> 606 ;
607 [label="gini = 0.0\nsamples = 6\nvalue = [0, 10]"] ;
601 -> 607 ;
608 [label="mean <= -10.323\ngini = 0.444\nsamples = 2\nvalue = [1, 2]"] ;
600 -> 608 ;
609 [label="gini = 0.0\nsamples = 1\nvalue = [0, 2]"] ;
608 -> 609 ;
610 [label="gini = 0.0\nsamples = 1\nvalue = [1, 0]"] ;
608 -> 610 ;
611 [label="gini = 0.0\nsamples = 9\nvalue = [0, 16]"] ;
599 -> 611 ;
612 [label="gini = 0.0\nsamples = 1\nvalue = [2, 0]"] ;
592 -> 612 ;
613 [label="entropy <= 59382.865\ngini = 0.444\nsamples = 5\nvalue = [4, 2]"] ;
579 -> 613 ;
614 [label="gini = 0.0\nsamples = 2\nvalue = [3, 0]"] ;
613 -> 614 ;
615 [label="entropy <= 59719.83\ngini = 0.444\nsamples = 3\nvalue = [1, 2]"] ;
613 -> 615 ;
616 [label="gini = 0.0\nsamples = 1\nvalue = [0, 1]"] ;
615 -> 616 ;
617 [label="entropy <= 60352.83\ngini = 0.5\nsamples = 2\nvalue = [1, 1]"] ;
615 -> 617 ;
618 [label="gini = 0.0\nsamples = 1\nvalue = [1, 0]"] ;
617 -> 618 ;
619 [label="gini = 0.0\nsamples = 1\nvalue = [0, 1]"] ;
617 -> 619 ;
620 [label="mean <= 4.249\ngini = 0.069\nsamples = 17\nvalue = [1, 27]"] ;
578 -> 620 ;
621 [label="gini = 0.0\nsamples = 10\nvalue = [0, 19]"] ;
620 -> 621 ;
622 [label="entropy <= 60723.102\ngini = 0.198\nsamples = 7\nvalue = [1, 8]"] ;
620 -> 622 ;
623 [label="gini = 0.0\nsamples = 6\nvalue = [0, 8]"] ;
622 -> 623 ;
624 [label="gini = 0.0\nsamples = 1\nvalue = [1, 0]"] ;
622 -> 624 ;
625 [label="fft <= 0.004\ngini = 0.34\nsamples = 68\nvalue = [20, 72]"] ;
575 -> 625 ;
626 [label="mean <= -21.643\ngini = 0.385\nsamples = 60\nvalue = [20, 57]"] ;
625 -> 626 ;
627 [label="entropy <= 61355.221\ngini = 0.49\nsamples = 10\nvalue = [8, 6]"] ;
626 -> 627 ;
628 [label="gini = 0.0\nsamples = 1\nvalue = [3, 0]"] ;
627 -> 628 ;
629 [label="entropy <= 62595.805\ngini = 0.496\nsamples = 9\nvalue = [5, 6]"] ;
627 -> 629 ;
630 [label="gini = 0.0\nsamples = 4\nvalue = [0, 4]"] ;
629 -> 630 ;
631 [label="entropy <= 64432.598\ngini = 0.408\nsamples = 5\nvalue = [5, 2]"] ;
629 -> 631 ;
632 [label="fft <= 0.003\ngini = 0.278\nsamples = 4\nvalue = [5, 1]"] ;
631 -> 632 ;
633 [label="fft <= 0.002\ngini = 0.444\nsamples = 3\nvalue = [2, 1]"] ;
632 -> 633 ;
634 [label="gini = 0.0\nsamples = 2\nvalue = [2, 0]"] ;
633 -> 634 ;
635 [label="gini = 0.0\nsamples = 1\nvalue = [0, 1]"] ;
633 -> 635 ;
636 [label="gini = 0.0\nsamples = 1\nvalue = [3, 0]"] ;
632 -> 636 ;
637 [label="gini = 0.0\nsamples = 1\nvalue = [0, 1]"] ;
631 -> 637 ;
638 [label="fft <= 0.004\ngini = 0.308\nsamples = 50\nvalue = [12, 51]"] ;
626 -> 638 ;
639 [label="num_peaks <= 0.5\ngini = 0.262\nsamples = 45\nvalue = [9, 49]"] ;
638 -> 639 ;
640 [label="entropy <= 61844.018\ngini = 0.137\nsamples = 21\nvalue = [2, 25]"] ;
639 -> 640 ;
641 [label="entropy <= 61501.619\ngini = 0.444\nsamples = 5\nvalue = [2, 4]"] ;
640 -> 641 ;
642 [label="gini = 0.0\nsamples = 2\nvalue = [0, 3]"] ;
641 -> 642 ;
643 [label="fft <= 0.003\ngini = 0.444\nsamples = 3\nvalue = [2, 1]"] ;
641 -> 643 ;
644 [label="gini = 0.0\nsamples = 2\nvalue = [2, 0]"] ;
643 -> 644 ;
645 [label="gini = 0.0\nsamples = 1\nvalue = [0, 1]"] ;
643 -> 645 ;
646 [label="gini = 0.0\nsamples = 16\nvalue = [0, 21]"] ;
640 -> 646 ;
647 [label="mean <= -0.115\ngini = 0.35\nsamples = 24\nvalue = [7, 24]"] ;
639 -> 647 ;
648 [label="entropy <= 64680.418\ngini = 0.455\nsamples = 14\nvalue = [7, 13]"] ;
647 -> 648 ;
649 [label="entropy <= 61182.559\ngini = 0.375\nsamples = 12\nvalue = [4, 12]"] ;
648 -> 649 ;
650 [label="gini = 0.0\nsamples = 1\nvalue = [1, 0]"] ;
649 -> 650 ;
651 [label="entropy <= 62751.994\ngini = 0.32\nsamples = 11\nvalue = [3, 12]"] ;
649 -> 651 ;
652 [label="entropy <= 61366.619\ngini = 0.18\nsamples = 7\nvalue = [1, 9]"] ;
651 -> 652 ;
653 [label="fft <= 0.002\ngini = 0.444\nsamples = 3\nvalue = [1, 2]"] ;
652 -> 653 ;
654 [label="gini = 0.0\nsamples = 1\nvalue = [1, 0]"] ;
653 -> 654 ;
655 [label="gini = 0.0\nsamples = 2\nvalue = [0, 2]"] ;
653 -> 655 ;
656 [label="gini = 0.0\nsamples = 4\nvalue = [0, 7]"] ;
652 -> 656 ;
657 [label="mean <= -4.069\ngini = 0.48\nsamples = 4\nvalue = [2, 3]"] ;
651 -> 657 ;
658 [label="fft <= 0.002\ngini = 0.444\nsamples = 3\nvalue = [2, 1]"] ;
657 -> 658 ;
659 [label="gini = 0.0\nsamples = 1\nvalue = [0, 1]"] ;
658 -> 659 ;
660 [label="gini = 0.0\nsamples = 2\nvalue = [2, 0]"] ;
658 -> 660 ;
661 [label="gini = 0.0\nsamples = 1\nvalue = [0, 2]"] ;
657 -> 661 ;
662 [label="fft <= 0.002\ngini = 0.375\nsamples = 2\nvalue = [3, 1]"] ;
648 -> 662 ;
663 [label="gini = 0.0\nsamples = 1\nvalue = [3, 0]"] ;
662 -> 663 ;
664 [label="gini = 0.0\nsamples = 1\nvalue = [0, 1]"] ;
662 -> 664 ;
665 [label="gini = 0.0\nsamples = 10\nvalue = [0, 11]"] ;
647 -> 665 ;
666 [label="entropy <= 64108.258\ngini = 0.48\nsamples = 5\nvalue = [3, 2]"] ;
638 -> 666 ;
667 [label="entropy <= 62793.121\ngini = 0.375\nsamples = 4\nvalue = [3, 1]"] ;
666 -> 667 ;
668 [label="mean <= -1.452\ngini = 0.5\nsamples = 2\nvalue = [1, 1]"] ;
667 -> 668 ;
669 [label="gini = 0.0\nsamples = 1\nvalue = [0, 1]"] ;
668 -> 669 ;
670 [label="gini = 0.0\nsamples = 1\nvalue = [1, 0]"] ;
668 -> 670 ;
671 [label="gini = 0.0\nsamples = 2\nvalue = [2, 0]"] ;
667 -> 671 ;
672 [label="gini = 0.0\nsamples = 1\nvalue = [0, 1]"] ;
666 -> 672 ;
673 [label="gini = 0.0\nsamples = 8\nvalue = [0, 15]"] ;
625 -> 673 ;
674 [label="entropy <= 60816.857\ngini = 0.32\nsamples = 3\nvalue = [4, 1]"] ;
546 -> 674 ;
675 [label="gini = 0.0\nsamples = 1\nvalue = [2, 0]"] ;
674 -> 675 ;
676 [label="entropy <= 61573.064\ngini = 0.444\nsamples = 2\nvalue = [2, 1]"] ;
674 -> 676 ;
677 [label="gini = 0.0\nsamples = 1\nvalue = [0, 1]"] ;
676 -> 677 ;
678 [label="gini = 0.0\nsamples = 1\nvalue = [2, 0]"] ;
676 -> 678 ;
679 [label="gini = 0.0\nsamples = 1\nvalue = [3, 0]"] ;
545 -> 679 ;
680 [label="mean <= -30.688\ngini = 0.499\nsamples = 181\nvalue = [134, 148]"] ;
502 -> 680 ;
681 [label="entropy <= 57944.76\ngini = 0.278\nsamples = 19\nvalue = [5, 25]"] ;
680 -> 681 ;
682 [label="fft <= 0.008\ngini = 0.48\nsamples = 4\nvalue = [3, 2]"] ;
681 -> 682 ;
683 [label="gini = 0.0\nsamples = 2\nvalue = [3, 0]"] ;
682 -> 683 ;
684 [label="gini = 0.0\nsamples = 2\nvalue = [0, 2]"] ;
682 -> 684 ;
685 [label="entropy <= 59194.287\ngini = 0.147\nsamples = 15\nvalue = [2, 23]"] ;
681 -> 685 ;
686 [label="mean <= -73.896\ngini = 0.298\nsamples = 6\nvalue = [2, 9]"] ;
685 -> 686 ;
687 [label="gini = 0.0\nsamples = 1\nvalue = [2, 0]"] ;
686 -> 687 ;
688 [label="gini = 0.0\nsamples = 5\nvalue = [0, 9]"] ;
686 -> 688 ;
689 [label="gini = 0.0\nsamples = 9\nvalue = [0, 14]"] ;
685 -> 689 ;
690 [label="fft <= 0.008\ngini = 0.5\nsamples = 162\nvalue = [129, 123]"] ;
680 -> 690 ;
691 [label="mean <= -18.573\ngini = 0.265\nsamples = 32\nvalue = [43, 8]"] ;
690 -> 691 ;
692 [label="gini = 0.0\nsamples = 2\nvalue = [0, 2]"] ;
691 -> 692 ;
693 [label="entropy <= 59154.738\ngini = 0.215\nsamples = 30\nvalue = [43, 6]"] ;
691 -> 693 ;
694 [label="gini = 0.0\nsamples = 13\nvalue = [25, 0]"] ;
693 -> 694 ;
695 [label="entropy <= 59807.58\ngini = 0.375\nsamples = 17\nvalue = [18, 6]"] ;
693 -> 695 ;
696 [label="mean <= -0.316\ngini = 0.32\nsamples = 4\nvalue = [1, 4]"] ;
695 -> 696 ;
697 [label="gini = 0.0\nsamples = 3\nvalue = [0, 4]"] ;
696 -> 697 ;
698 [label="gini = 0.0\nsamples = 1\nvalue = [1, 0]"] ;
696 -> 698 ;
699 [label="fft <= 0.006\ngini = 0.188\nsamples = 13\nvalue = [17, 2]"] ;
695 -> 699 ;
700 [label="fft <= 0.005\ngini = 0.408\nsamples = 5\nvalue = [5, 2]"] ;
699 -> 700 ;
701 [label="gini = 0.0\nsamples = 3\nvalue = [5, 0]"] ;
700 -> 701 ;
702 [label="gini = 0.0\nsamples = 2\nvalue = [0, 2]"] ;
700 -> 702 ;
703 [label="gini = 0.0\nsamples = 8\nvalue = [12, 0]"] ;
699 -> 703 ;
704 [label="entropy <= 60194.066\ngini = 0.49\nsamples = 130\nvalue = [86, 115]"] ;
690 -> 704 ;
705 [label="entropy <= 57561.826\ngini = 0.479\nsamples = 66\nvalue = [59, 39]"] ;
704 -> 705 ;
706 [label="gini = 0.0\nsamples = 1\nvalue = [0, 3]"] ;
705 -> 706 ;
707 [label="entropy <= 59072.021\ngini = 0.471\nsamples = 65\nvalue = [59, 36]"] ;
705 -> 707 ;
708 [label="fft <= 0.011\ngini = 0.495\nsamples = 41\nvalue = [33, 27]"] ;
707 -> 708 ;
709 [label="fft <= 0.01\ngini = 0.34\nsamples = 14\nvalue = [5, 18]"] ;
708 -> 709 ;
710 [label="mean <= -21.882\ngini = 0.486\nsamples = 6\nvalue = [5, 7]"] ;
709 -> 710 ;
711 [label="gini = 0.0\nsamples = 1\nvalue = [3, 0]"] ;
710 -> 711 ;
712 [label="mean <= -3.446\ngini = 0.346\nsamples = 5\nvalue = [2, 7]"] ;
710 -> 712 ;
713 [label="gini = 0.0\nsamples = 3\nvalue = [0, 5]"] ;
712 -> 713 ;
714 [label="fft <= 0.009\ngini = 0.5\nsamples = 2\nvalue = [2, 2]"] ;
712 -> 714 ;
715 [label="gini = 0.0\nsamples = 1\nvalue = [2, 0]"] ;
714 -> 715 ;
716 [label="gini = 0.0\nsamples = 1\nvalue = [0, 2]"] ;
714 -> 716 ;
717 [label="gini = 0.0\nsamples = 8\nvalue = [0, 11]"] ;
709 -> 717 ;
718 [label="entropy <= 57920.303\ngini = 0.368\nsamples = 27\nvalue = [28, 9]"] ;
708 -> 718 ;
719 [label="gini = 0.0\nsamples = 8\nvalue = [11, 0]"] ;
718 -> 719 ;
720 [label="mean <= -14.965\ngini = 0.453\nsamples = 19\nvalue = [17, 9]"] ;
718 -> 720 ;
721 [label="gini = 0.0\nsamples = 2\nvalue = [0, 3]"] ;
720 -> 721 ;
722 [label="entropy <= 58006.512\ngini = 0.386\nsamples = 17\nvalue = [17, 6]"] ;
720 -> 722 ;
723 [label="gini = 0.0\nsamples = 1\nvalue = [0, 2]"] ;
722 -> 723 ;
724 [label="fft <= 0.016\ngini = 0.308\nsamples = 16\nvalue = [17, 4]"] ;
722 -> 724 ;
725 [label="gini = 0.0\nsamples = 7\nvalue = [10, 0]"] ;
724 -> 725 ;
726 [label="fft <= 0.02\ngini = 0.463\nsamples = 9\nvalue = [7, 4]"] ;
724 -> 726 ;
727 [label="entropy <= 58566.164\ngini = 0.32\nsamples = 4\nvalue = [1, 4]"] ;
726 -> 727 ;
728 [label="gini = 0.0\nsamples = 3\nvalue = [0, 4]"] ;
727 -> 728 ;
729 [label="gini = 0.0\nsamples = 1\nvalue = [1, 0]"] ;
727 -> 729 ;
730 [label="gini = 0.0\nsamples = 5\nvalue = [6, 0]"] ;
726 -> 730 ;
731 [label="mean <= 5.028\ngini = 0.382\nsamples = 24\nvalue = [26, 9]"] ;
707 -> 731 ;
732 [label="entropy <= 59815.682\ngini = 0.334\nsamples = 23\nvalue = [26, 7]"] ;
731 -> 732 ;
733 [label="fft <= 0.022\ngini = 0.095\nsamples = 13\nvalue = [19, 1]"] ;
732 -> 733 ;
734 [label="gini = 0.0\nsamples = 9\nvalue = [13, 0]"] ;
733 -> 734 ;
735 [label="entropy <= 59323.145\ngini = 0.245\nsamples = 4\nvalue = [6, 1]"] ;
733 -> 735 ;
736 [label="fft <= 0.023\ngini = 0.444\nsamples = 2\nvalue = [2, 1]"] ;
735 -> 736 ;
737 [label="gini = 0.0\nsamples = 1\nvalue = [0, 1]"] ;
736 -> 737 ;
738 [label="gini = 0.0\nsamples = 1\nvalue = [2, 0]"] ;
736 -> 738 ;
739 [label="gini = 0.0\nsamples = 2\nvalue = [4, 0]"] ;
735 -> 739 ;
740 [label="fft <= 0.023\ngini = 0.497\nsamples = 10\nvalue = [7, 6]"] ;
732 -> 740 ;
741 [label="mean <= -18.393\ngini = 0.42\nsamples = 9\nvalue = [7, 3]"] ;
740 -> 741 ;
742 [label="gini = 0.0\nsamples = 1\nvalue = [0, 1]"] ;
741 -> 742 ;
743 [label="entropy <= 59965.043\ngini = 0.346\nsamples = 8\nvalue = [7, 2]"] ;
741 -> 743 ;
744 [label="gini = 0.0\nsamples = 2\nvalue = [0, 2]"] ;
743 -> 744 ;
745 [label="gini = 0.0\nsamples = 6\nvalue = [7, 0]"] ;
743 -> 745 ;
746 [label="gini = 0.0\nsamples = 1\nvalue = [0, 3]"] ;
740 -> 746 ;
747 [label="gini = 0.0\nsamples = 1\nvalue = [0, 2]"] ;
731 -> 747 ;
748 [label="entropy <= 62578.637\ngini = 0.387\nsamples = 64\nvalue = [27, 76]"] ;
704 -> 748 ;
749 [label="mean <= -10.774\ngini = 0.449\nsamples = 34\nvalue = [18, 35]"] ;
748 -> 749 ;
750 [label="fft <= 0.018\ngini = 0.291\nsamples = 12\nvalue = [14, 3]"] ;
749 -> 750 ;
751 [label="entropy <= 61691.463\ngini = 0.469\nsamples = 5\nvalue = [5, 3]"] ;
750 -> 751 ;
752 [label="entropy <= 61462.035\ngini = 0.375\nsamples = 2\nvalue = [1, 3]"] ;
751 -> 752 ;
753 [label="gini = 0.0\nsamples = 1\nvalue = [1, 0]"] ;
752 -> 753 ;
754 [label="gini = 0.0\nsamples = 1\nvalue = [0, 3]"] ;
752 -> 754 ;
755 [label="gini = 0.0\nsamples = 3\nvalue = [4, 0]"] ;
751 -> 755 ;
756 [label="gini = 0.0\nsamples = 7\nvalue = [9, 0]"] ;
750 -> 756 ;
757 [label="fft <= 0.01\ngini = 0.198\nsamples = 22\nvalue = [4, 32]"] ;
749 -> 757 ;
758 [label="gini = 0.0\nsamples = 1\nvalue = [1, 0]"] ;
757 -> 758 ;
759 [label="mean <= -5.373\ngini = 0.157\nsamples = 21\nvalue = [3, 32]"] ;
757 -> 759 ;
760 [label="fft <= 0.02\ngini = 0.444\nsamples = 3\nvalue = [1, 2]"] ;
759 -> 760 ;
761 [label="gini = 0.0\nsamples = 2\nvalue = [0, 2]"] ;
760 -> 761 ;
762 [label="gini = 0.0\nsamples = 1\nvalue = [1, 0]"] ;
760 -> 762 ;
763 [label="mean <= 2.164\ngini = 0.117\nsamples = 18\nvalue = [2, 30]"] ;
759 -> 763 ;
764 [label="num_peaks <= 0.5\ngini = 0.069\nsamples = 15\nvalue = [1, 27]"] ;
763 -> 764 ;
765 [label="entropy <= 61684.463\ngini = 0.198\nsamples = 7\nvalue = [1, 8]"] ;
764 -> 765 ;
766 [label="gini = 0.0\nsamples = 3\nvalue = [0, 5]"] ;
765 -> 766 ;
767 [label="entropy <= 61918.596\ngini = 0.375\nsamples = 4\nvalue = [1, 3]"] ;
765 -> 767 ;
768 [label="gini = 0.0\nsamples = 1\nvalue = [1, 0]"] ;
767 -> 768 ;
769 [label="gini = 0.0\nsamples = 3\nvalue = [0, 3]"] ;
767 -> 769 ;
770 [label="gini = 0.0\nsamples = 8\nvalue = [0, 19]"] ;
764 -> 770 ;
771 [label="entropy <= 61620.193\ngini = 0.375\nsamples = 3\nvalue = [1, 3]"] ;
763 -> 771 ;
772 [label="gini = 0.0\nsamples = 1\nvalue = [1, 0]"] ;
771 -> 772 ;
773 [label="gini = 0.0\nsamples = 2\nvalue = [0, 3]"] ;
771 -> 773 ;
774 [label="fft <= 0.024\ngini = 0.295\nsamples = 30\nvalue = [9, 41]"] ;
748 -> 774 ;
775 [label="mean <= -9.957\ngini = 0.223\nsamples = 28\nvalue = [6, 41]"] ;
774 -> 775 ;
776 [label="gini = 0.0\nsamples = 2\nvalue = [2, 0]"] ;
775 -> 776 ;
777 [label="fft <= 0.017\ngini = 0.162\nsamples = 26\nvalue = [4, 41]"] ;
775 -> 777 ;
778 [label="fft <= 0.016\ngini = 0.36\nsamples = 10\nvalue = [4, 13]"] ;
777 -> 778 ;
779 [label="gini = 0.0\nsamples = 7\nvalue = [0, 12]"] ;
778 -> 779 ;
780 [label="entropy <= 67080.912\ngini = 0.32\nsamples = 3\nvalue = [4, 1]"] ;
778 -> 780 ;
781 [label="gini = 0.0\nsamples = 2\nvalue = [4, 0]"] ;
780 -> 781 ;
782 [label="gini = 0.0\nsamples = 1\nvalue = [0, 1]"] ;
780 -> 782 ;
783 [label="gini = 0.0\nsamples = 16\nvalue = [0, 28]"] ;
777 -> 783 ;
784 [label="gini = 0.0\nsamples = 2\nvalue = [3, 0]"] ;
774 -> 784 ;
785 [label="entropy <= 64782.557\ngini = 0.211\nsamples = 110\nvalue = [132, 18]"] ;
403 -> 785 ;
786 [label="entropy <= 60750.486\ngini = 0.153\nsamples = 105\nvalue = [132, 12]"] ;
785 -> 786 ;
787 [label="mean <= -16.424\ngini = 0.065\nsamples = 85\nvalue = [114, 4]"] ;
786 -> 787 ;
788 [label="gini = 0.0\nsamples = 1\nvalue = [0, 2]"] ;
787 -> 788 ;
789 [label="mean <= -7.562\ngini = 0.034\nsamples = 84\nvalue = [114, 2]"] ;
787 -> 789 ;
790 [label="fft <= 0.03\ngini = 0.1\nsamples = 14\nvalue = [18, 1]"] ;
789 -> 790 ;
791 [label="mean <= -10.205\ngini = 0.444\nsamples = 3\nvalue = [2, 1]"] ;
790 -> 791 ;
792 [label="gini = 0.0\nsamples = 2\nvalue = [2, 0]"] ;
791 -> 792 ;
793 [label="gini = 0.0\nsamples = 1\nvalue = [0, 1]"] ;
791 -> 793 ;
794 [label="gini = 0.0\nsamples = 11\nvalue = [16, 0]"] ;
790 -> 794 ;
795 [label="mean <= 2.294\ngini = 0.02\nsamples = 70\nvalue = [96, 1]"] ;
789 -> 795 ;
796 [label="gini = 0.0\nsamples = 52\nvalue = [75, 0]"] ;
795 -> 796 ;
797 [label="mean <= 2.73\ngini = 0.087\nsamples = 18\nvalue = [21, 1]"] ;
795 -> 797 ;
798 [label="gini = 0.0\nsamples = 1\nvalue = [0, 1]"] ;
797 -> 798 ;
799 [label="gini = 0.0\nsamples = 17\nvalue = [21, 0]"] ;
797 -> 799 ;
800 [label="mean <= -3.083\ngini = 0.426\nsamples = 20\nvalue = [18, 8]"] ;
786 -> 800 ;
801 [label="gini = 0.0\nsamples = 11\nvalue = [14, 0]"] ;
800 -> 801 ;
802 [label="num_peaks <= 0.5\ngini = 0.444\nsamples = 9\nvalue = [4, 8]"] ;
800 -> 802 ;
803 [label="entropy <= 60921.168\ngini = 0.49\nsamples = 4\nvalue = [4, 3]"] ;
802 -> 803 ;
804 [label="gini = 0.0\nsamples = 1\nvalue = [0, 2]"] ;
803 -> 804 ;
805 [label="entropy <= 61796.502\ngini = 0.32\nsamples = 3\nvalue = [4, 1]"] ;
803 -> 805 ;
806 [label="gini = 0.0\nsamples = 1\nvalue = [3, 0]"] ;
805 -> 806 ;
807 [label="mean <= 3.774\ngini = 0.5\nsamples = 2\nvalue = [1, 1]"] ;
805 -> 807 ;
808 [label="gini = 0.0\nsamples = 1\nvalue = [0, 1]"] ;
807 -> 808 ;
809 [label="gini = 0.0\nsamples = 1\nvalue = [1, 0]"] ;
807 -> 809 ;
810 [label="gini = 0.0\nsamples = 5\nvalue = [0, 5]"] ;
802 -> 810 ;
811 [label="gini = 0.0\nsamples = 5\nvalue = [0, 6]"] ;
785 -> 811 ;
812 [label="mean <= 85.05\ngini = 0.362\nsamples = 291\nvalue = [112, 359]"] ;
402 -> 812 ;
813 [label="entropy <= 65668.707\ngini = 0.346\nsamples = 269\nvalue = [96, 335]"] ;
812 -> 813 ;
814 [label="mean <= 60.812\ngini = 0.324\nsamples = 256\nvalue = [83, 325]"] ;
813 -> 814 ;
815 [label="fft <= 0.026\ngini = 0.338\nsamples = 238\nvalue = [82, 299]"] ;
814 -> 815 ;
816 [label="fft <= 0.001\ngini = 0.309\nsamples = 229\nvalue = [70, 297]"] ;
815 -> 816 ;
817 [label="entropy <= 60231.223\ngini = 0.472\nsamples = 15\nvalue = [13, 8]"] ;
816 -> 817 ;
818 [label="fft <= 0.0\ngini = 0.198\nsamples = 7\nvalue = [8, 1]"] ;
817 -> 818 ;
819 [label="gini = 0.0\nsamples = 1\nvalue = [0, 1]"] ;
818 -> 819 ;
820 [label="gini = 0.0\nsamples = 6\nvalue = [8, 0]"] ;
818 -> 820 ;
821 [label="mean <= 30.243\ngini = 0.486\nsamples = 8\nvalue = [5, 7]"] ;
817 -> 821 ;
822 [label="mean <= 10.101\ngini = 0.219\nsamples = 6\nvalue = [1, 7]"] ;
821 -> 822 ;
823 [label="gini = 0.0\nsamples = 1\nvalue = [1, 0]"] ;
822 -> 823 ;
824 [label="gini = 0.0\nsamples = 5\nvalue = [0, 7]"] ;
822 -> 824 ;
825 [label="gini = 0.0\nsamples = 2\nvalue = [4, 0]"] ;
821 -> 825 ;
826 [label="entropy <= 59417.699\ngini = 0.275\nsamples = 214\nvalue = [57, 289]"] ;
816 -> 826 ;
827 [label="mean <= 7.57\ngini = 0.376\nsamples = 112\nvalue = [44, 131]"] ;
826 -> 827 ;
828 [label="gini = 0.0\nsamples = 1\nvalue = [1, 0]"] ;
827 -> 828 ;
829 [label="entropy <= 59403.277\ngini = 0.372\nsamples = 111\nvalue = [43, 131]"] ;
827 -> 829 ;
830 [label="entropy <= 58941.318\ngini = 0.363\nsamples = 110\nvalue = [41, 131]"] ;
829 -> 830 ;
831 [label="fft <= 0.002\ngini = 0.337\nsamples = 92\nvalue = [32, 117]"] ;
830 -> 831 ;
832 [label="fft <= 0.002\ngini = 0.161\nsamples = 42\nvalue = [6, 62]"] ;
831 -> 832 ;
833 [label="entropy <= 58712.764\ngini = 0.308\nsamples = 16\nvalue = [4, 17]"] ;
832 -> 833 ;
834 [label="entropy <= 58630.414\ngini = 0.426\nsamples = 12\nvalue = [4, 9]"] ;
833 -> 834 ;
835 [label="entropy <= 58155.875\ngini = 0.375\nsamples = 11\nvalue = [3, 9]"] ;
834 -> 835 ;
836 [label="fft <= 0.001\ngini = 0.469\nsamples = 8\nvalue = [3, 5]"] ;
835 -> 836 ;
837 [label="gini = 0.0\nsamples = 1\nvalue = [1, 0]"] ;
836 -> 837 ;
838 [label="entropy <= 58082.102\ngini = 0.408\nsamples = 7\nvalue = [2, 5]"] ;
836 -> 838 ;
839 [label="mean <= 17.6\ngini = 0.278\nsamples = 6\nvalue = [1, 5]"] ;
838 -> 839 ;
840 [label="gini = 0.0\nsamples = 1\nvalue = [1, 0]"] ;
839 -> 840 ;
841 [label="gini = 0.0\nsamples = 5\nvalue = [0, 5]"] ;
839 -> 841 ;
842 [label="gini = 0.0\nsamples = 1\nvalue = [1, 0]"] ;
838 -> 842 ;
843 [label="gini = 0.0\nsamples = 3\nvalue = [0, 4]"] ;
835 -> 843 ;
844 [label="gini = 0.0\nsamples = 1\nvalue = [1, 0]"] ;
834 -> 844 ;
845 [label="gini = 0.0\nsamples = 4\nvalue = [0, 8]"] ;
833 -> 845 ;
846 [label="entropy <= 58400.545\ngini = 0.081\nsamples = 26\nvalue = [2, 45]"] ;
832 -> 846 ;
847 [label="gini = 0.0\nsamples = 16\nvalue = [0, 27]"] ;
846 -> 847 ;
848 [label="entropy <= 58431.592\ngini = 0.18\nsamples = 10\nvalue = [2, 18]"] ;
846 -> 848 ;
849 [label="gini = 0.0\nsamples = 1\nvalue = [2, 0]"] ;
848 -> 849 ;
850 [label="gini = 0.0\nsamples = 9\nvalue = [0, 18]"] ;
848 -> 850 ;
851 [label="entropy <= 58718.4\ngini = 0.436\nsamples = 50\nvalue = [26, 55]"] ;
831 -> 851 ;
852 [label="entropy <= 58530.023\ngini = 0.453\nsamples = 47\nvalue = [26, 49]"] ;
851 -> 852 ;
853 [label="mean <= 44.681\ngini = 0.412\nsamples = 43\nvalue = [20, 49]"] ;
852 -> 853 ;
854 [label="fft <= 0.003\ngini = 0.35\nsamples = 40\nvalue = [14, 48]"] ;
853 -> 854 ;
855 [label="gini = 0.0\nsamples = 1\nvalue = [2, 0]"] ;
854 -> 855 ;
856 [label="mean <= 13.813\ngini = 0.32\nsamples = 39\nvalue = [12, 48]"] ;
854 -> 856 ;
857 [label="entropy <= 57680.287\ngini = 0.463\nsamples = 8\nvalue = [4, 7]"] ;
856 -> 857 ;
858 [label="gini = 0.0\nsamples = 3\nvalue = [0, 3]"] ;
857 -> 858 ;
859 [label="fft <= 0.004\ngini = 0.5\nsamples = 5\nvalue = [4, 4]"] ;
857 -> 859 ;
860 [label="gini = 0.0\nsamples = 1\nvalue = [0, 3]"] ;
859 -> 860 ;
861 [label="fft <= 0.008\ngini = 0.32\nsamples = 4\nvalue = [4, 1]"] ;
859 -> 861 ;
862 [label="gini = 0.0\nsamples = 3\nvalue = [4, 0]"] ;
861 -> 862 ;
863 [label="gini = 0.0\nsamples = 1\nvalue = [0, 1]"] ;
861 -> 863 ;
864 [label="mean <= 20.035\ngini = 0.273\nsamples = 31\nvalue = [8, 41]"] ;
856 -> 864 ;
865 [label="fft <= 0.017\ngini = 0.1\nsamples = 11\nvalue = [1, 18]"] ;
864 -> 865 ;
866 [label="gini = 0.0\nsamples = 10\nvalue = [0, 18]"] ;
865 -> 866 ;
867 [label="gini = 0.0\nsamples = 1\nvalue = [1, 0]"] ;
865 -> 867 ;
868 [label="mean <= 31.389\ngini = 0.358\nsamples = 20\nvalue = [7, 23]"] ;
864 -> 868 ;
869 [label="fft <= 0.007\ngini = 0.469\nsamples = 12\nvalue = [6, 10]"] ;
868 -> 869 ;
870 [label="fft <= 0.003\ngini = 0.48\nsamples = 8\nvalue = [6, 4]"] ;
869 -> 870 ;
871 [label="gini = 0.0\nsamples = 2\nvalue = [2, 0]"] ;
870 -> 871 ;
872 [label="mean <= 22.525\ngini = 0.5\nsamples = 6\nvalue = [4, 4]"] ;
870 -> 872 ;
873 [label="gini = 0.0\nsamples = 2\nvalue = [0, 3]"] ;
872 -> 873 ;
874 [label="num_peaks <= 0.5\ngini = 0.32\nsamples = 4\nvalue = [4, 1]"] ;
872 -> 874 ;
875 [label="gini = 0.0\nsamples = 2\nvalue = [2, 0]"] ;
874 -> 875 ;
876 [label="mean <= 29.635\ngini = 0.444\nsamples = 2\nvalue = [2, 1]"] ;
874 -> 876 ;
877 [label="gini = 0.0\nsamples = 1\nvalue = [0, 1]"] ;
876 -> 877 ;
878 [label="gini = 0.0\nsamples = 1\nvalue = [2, 0]"] ;
876 -> 878 ;
879 [label="gini = 0.0\nsamples = 4\nvalue = [0, 6]"] ;
869 -> 879 ;
880 [label="entropy <= 58009.98\ngini = 0.133\nsamples = 8\nvalue = [1, 13]"] ;
868 -> 880 ;
881 [label="mean <= 36.191\ngini = 0.278\nsamples = 4\nvalue = [1, 5]"] ;
880 -> 881 ;
882 [label="gini = 0.0\nsamples = 3\nvalue = [0, 5]"] ;
881 -> 882 ;
883 [label="gini = 0.0\nsamples = 1\nvalue = [1, 0]"] ;
881 -> 883 ;
884 [label="gini = 0.0\nsamples = 4\nvalue = [0, 8]"] ;
880 -> 884 ;
885 [label="mean <= 52.069\ngini = 0.245\nsamples = 3\nvalue = [6, 1]"] ;
853 -> 885 ;
886 [label="gini = 0.0\nsamples = 2\nvalue = [6, 0]"] ;
885 -> 886 ;
887 [label="gini = 0.0\nsamples = 1\nvalue = [0, 1]"] ;
885 -> 887 ;
888 [label="gini = 0.0\nsamples = 4\nvalue = [6, 0]"] ;
852 -> 888 ;
889 [label="gini = 0.0\nsamples = 3\nvalue = [0, 6]"] ;
851 -> 889 ;
890 [label="entropy <= 59274.736\ngini = 0.476\nsamples = 18\nvalue = [9, 14]"] ;
830 -> 890 ;
891 [label="mean <= 26.108\ngini = 0.486\nsamples = 11\nvalue = [7, 5]"] ;
890 -> 891 ;
892 [label="mean <= 9.931\ngini = 0.245\nsamples = 6\nvalue = [6, 1]"] ;
891 -> 892 ;
893 [label="gini = 0.0\nsamples = 1\nvalue = [0, 1]"] ;
892 -> 893 ;
894 [label="gini = 0.0\nsamples = 5\nvalue = [6, 0]"] ;
892 -> 894 ;
895 [label="entropy <= 59083.156\ngini = 0.32\nsamples = 5\nvalue = [1, 4]"] ;
891 -> 895 ;
896 [label="gini = 0.0\nsamples = 1\nvalue = [1, 0]"] ;
895 -> 896 ;
897 [label="gini = 0.0\nsamples = 4\nvalue = [0, 4]"] ;
895 -> 897 ;
898 [label="fft <= 0.003\ngini = 0.298\nsamples = 7\nvalue = [2, 9]"] ;
890 -> 898 ;
899 [label="gini = 0.0\nsamples = 3\nvalue = [0, 5]"] ;
898 -> 899 ;
900 [label="fft <= 0.01\ngini = 0.444\nsamples = 4\nvalue = [2, 4]"] ;
898 -> 900 ;
901 [label="gini = 0.0\nsamples = 2\nvalue = [2, 0]"] ;
900 -> 901 ;
902 [label="gini = 0.0\nsamples = 2\nvalue = [0, 4]"] ;
900 -> 902 ;
903 [label="gini = 0.0\nsamples = 1\nvalue = [2, 0]"] ;
829 -> 903 ;
904 [label="mean <= 57.558\ngini = 0.14\nsamples = 102\nvalue = [13, 158]"] ;
826 -> 904 ;
905 [label="mean <= 20.202\ngini = 0.131\nsamples = 101\nvalue = [12, 158]"] ;
904 -> 905 ;
906 [label="fft <= 0.004\ngini = 0.225\nsamples = 54\nvalue = [11, 74]"] ;
905 -> 906 ;
907 [label="mean <= 11.339\ngini = 0.075\nsamples = 30\nvalue = [2, 49]"] ;
906 -> 907 ;
908 [label="gini = 0.0\nsamples = 15\nvalue = [0, 26]"] ;
907 -> 908 ;
909 [label="mean <= 12.266\ngini = 0.147\nsamples = 15\nvalue = [2, 23]"] ;
907 -> 909 ;
910 [label="gini = 0.0\nsamples = 1\nvalue = [1, 0]"] ;
909 -> 910 ;
911 [label="mean <= 15.038\ngini = 0.08\nsamples = 14\nvalue = [1, 23]"] ;
909 -> 911 ;
912 [label="entropy <= 61099.412\ngini = 0.165\nsamples = 7\nvalue = [1, 10]"] ;
911 -> 912 ;
913 [label="fft <= 0.001\ngini = 0.32\nsamples = 4\nvalue = [1, 4]"] ;
912 -> 913 ;
914 [label="gini = 0.0\nsamples = 1\nvalue = [1, 0]"] ;
913 -> 914 ;
915 [label="gini = 0.0\nsamples = 3\nvalue = [0, 4]"] ;
913 -> 915 ;
916 [label="gini = 0.0\nsamples = 3\nvalue = [0, 6]"] ;
912 -> 916 ;
917 [label="gini = 0.0\nsamples = 7\nvalue = [0, 13]"] ;
911 -> 917 ;
918 [label="mean <= 16.664\ngini = 0.389\nsamples = 24\nvalue = [9, 25]"] ;
906 -> 918 ;
919 [label="entropy <= 60582.076\ngini = 0.18\nsamples = 14\nvalue = [2, 18]"] ;
918 -> 919 ;
920 [label="num_peaks <= 0.5\ngini = 0.5\nsamples = 3\nvalue = [2, 2]"] ;
919 -> 920 ;
921 [label="gini = 0.0\nsamples = 1\nvalue = [0, 2]"] ;
920 -> 921 ;
922 [label="gini = 0.0\nsamples = 2\nvalue = [2, 0]"] ;
920 -> 922 ;
923 [label="gini = 0.0\nsamples = 11\nvalue = [0, 16]"] ;
919 -> 923 ;
924 [label="fft <= 0.004\ngini = 0.5\nsamples = 10\nvalue = [7, 7]"] ;
918 -> 924 ;
925 [label="mean <= 18.631\ngini = 0.444\nsamples = 6\nvalue = [3, 6]"] ;
924 -> 925 ;
926 [label="num_peaks <= 0.5\ngini = 0.375\nsamples = 3\nvalue = [3, 1]"] ;
925 -> 926 ;
927 [label="gini = 0.0\nsamples = 1\nvalue = [0, 1]"] ;
926 -> 927 ;
928 [label="gini = 0.0\nsamples = 2\nvalue = [3, 0]"] ;
926 -> 928 ;
929 [label="gini = 0.0\nsamples = 3\nvalue = [0, 5]"] ;
925 -> 929 ;
930 [label="fft <= 0.011\ngini = 0.32\nsamples = 4\nvalue = [4, 1]"] ;
924 -> 930 ;
931 [label="gini = 0.0\nsamples = 2\nvalue = [2, 0]"] ;
930 -> 931 ;
932 [label="entropy <= 62210.748\ngini = 0.444\nsamples = 2\nvalue = [2, 1]"] ;
930 -> 932 ;
933 [label="gini = 0.0\nsamples = 1\nvalue = [2, 0]"] ;
932 -> 933 ;
934 [label="gini = 0.0\nsamples = 1\nvalue = [0, 1]"] ;
932 -> 934 ;
935 [label="fft <= 0.001\ngini = 0.023\nsamples = 47\nvalue = [1, 84]"] ;
905 -> 935 ;
936 [label="entropy <= 63106.463\ngini = 0.198\nsamples = 6\nvalue = [1, 8]"] ;
935 -> 936 ;
937 [label="gini = 0.0\nsamples = 5\nvalue = [0, 8]"] ;
936 -> 937 ;
938 [label="gini = 0.0\nsamples = 1\nvalue = [1, 0]"] ;
936 -> 938 ;
939 [label="gini = 0.0\nsamples = 41\nvalue = [0, 76]"] ;
935 -> 939 ;
940 [label="gini = 0.0\nsamples = 1\nvalue = [1, 0]"] ;
904 -> 940 ;
941 [label="entropy <= 62562.053\ngini = 0.245\nsamples = 9\nvalue = [12, 2]"] ;
815 -> 941 ;
942 [label="fft <= 0.046\ngini = 0.142\nsamples = 8\nvalue = [12, 1]"] ;
941 -> 942 ;
943 [label="mean <= 11.164\ngini = 0.375\nsamples = 3\nvalue = [3, 1]"] ;
942 -> 943 ;
944 [label="gini = 0.0\nsamples = 1\nvalue = [0, 1]"] ;
943 -> 944 ;
945 [label="gini = 0.0\nsamples = 2\nvalue = [3, 0]"] ;
943 -> 945 ;
946 [label="gini = 0.0\nsamples = 5\nvalue = [9, 0]"] ;
942 -> 946 ;
947 [label="gini = 0.0\nsamples = 1\nvalue = [0, 1]"] ;
941 -> 947 ;
948 [label="mean <= 71.707\ngini = 0.071\nsamples = 18\nvalue = [1, 26]"] ;
814 -> 948 ;
949 [label="fft <= 0.002\ngini = 0.153\nsamples = 8\nvalue = [1, 11]"] ;
948 -> 949 ;
950 [label="gini = 0.0\nsamples = 5\nvalue = [0, 7]"] ;
949 -> 950 ;
951 [label="entropy <= 58958.662\ngini = 0.32\nsamples = 3\nvalue = [1, 4]"] ;
949 -> 951 ;
952 [label="gini = 0.0\nsamples = 1\nvalue = [1, 0]"] ;
951 -> 952 ;
953 [label="gini = 0.0\nsamples = 2\nvalue = [0, 4]"] ;
951 -> 953 ;
954 [label="gini = 0.0\nsamples = 10\nvalue = [0, 15]"] ;
948 -> 954 ;
955 [label="entropy <= 68615.617\ngini = 0.491\nsamples = 13\nvalue = [13, 10]"] ;
813 -> 955 ;
956 [label="fft <= 0.004\ngini = 0.432\nsamples = 10\nvalue = [13, 6]"] ;
955 -> 956 ;
957 [label="entropy <= 67050.48\ngini = 0.153\nsamples = 6\nvalue = [11, 1]"] ;
956 -> 957 ;
958 [label="entropy <= 66615.953\ngini = 0.444\nsamples = 2\nvalue = [2, 1]"] ;
957 -> 958 ;
959 [label="gini = 0.0\nsamples = 1\nvalue = [2, 0]"] ;
958 -> 959 ;
960 [label="gini = 0.0\nsamples = 1\nvalue = [0, 1]"] ;
958 -> 960 ;
961 [label="gini = 0.0\nsamples = 4\nvalue = [9, 0]"] ;
957 -> 961 ;
962 [label="mean <= 8.877\ngini = 0.408\nsamples = 4\nvalue = [2, 5]"] ;
956 -> 962 ;
963 [label="gini = 0.0\nsamples = 1\nvalue = [2, 0]"] ;
962 -> 963 ;
964 [label="gini = 0.0\nsamples = 3\nvalue = [0, 5]"] ;
962 -> 964 ;
965 [label="gini = 0.0\nsamples = 3\nvalue = [0, 4]"] ;
955 -> 965 ;
966 [label="fft <= 0.002\ngini = 0.48\nsamples = 22\nvalue = [16, 24]"] ;
812 -> 966 ;
967 [label="fft <= 0.001\ngini = 0.444\nsamples = 11\nvalue = [12, 6]"] ;
966 -> 967 ;
968 [label="gini = 0.0\nsamples = 5\nvalue = [0, 6]"] ;
967 -> 968 ;
969 [label="gini = 0.0\nsamples = 6\nvalue = [12, 0]"] ;
967 -> 969 ;
970 [label="entropy <= 57964.992\ngini = 0.298\nsamples = 11\nvalue = [4, 18]"] ;
966 -> 970 ;
971 [label="gini = 0.0\nsamples = 8\nvalue = [0, 13]"] ;
970 -> 971 ;
972 [label="mean <= 88.839\ngini = 0.494\nsamples = 3\nvalue = [4, 5]"] ;
970 -> 972 ;
973 [label="gini = 0.0\nsamples = 1\nvalue = [4, 0]"] ;
972 -> 973 ;
974 [label="gini = 0.0\nsamples = 2\nvalue = [0, 5]"] ;
972 -> 974 ;
}